" . ||| " ||| 0.600000 0.200000 0.200000 0.200000 0.200000 0.600000 
" . ||| "Hilma" and ||| 0.200000 0.200000 0.600000 0.200000 0.600000 0.200000 
" . ||| "It is a ||| 0.200000 0.200000 0.600000 0.200000 0.200000 0.600000 
" . ||| "It is ||| 0.200000 0.200000 0.600000 0.200000 0.200000 0.600000 
" . ||| "It ||| 0.200000 0.200000 0.600000 0.200000 0.200000 0.600000 
" . ||| "We deeply regret this ||| 0.200000 0.200000 0.600000 0.200000 0.600000 0.200000 
" . ||| "We deeply regret ||| 0.200000 0.200000 0.600000 0.200000 0.200000 0.600000 
" . ||| "We deeply ||| 0.200000 0.200000 0.600000 0.200000 0.200000 0.600000 
" . ||| "We ||| 0.200000 0.200000 0.600000 0.200000 0.200000 0.600000 
" . ||| "at ||| 0.200000 0.200000 0.600000 0.200000 0.600000 0.200000 
" . ||| "it is not acceptable for resistance to ||| 0.200000 0.200000 0.600000 0.200000 0.200000 0.600000 
" . ||| "to ||| 0.200000 0.200000 0.600000 0.200000 0.200000 0.600000 
" . ||| - on the ||| 0.200000 0.200000 0.600000 0.200000 0.200000 0.600000 
" . ||| Americans to the ||| 0.200000 0.200000 0.600000 0.200000 0.600000 0.200000 
" . ||| Americans will get ||| 0.200000 0.200000 0.600000 0.200000 0.200000 0.600000 
" . ||| Americans." ||| 0.200000 0.200000 0.600000 0.600000 0.200000 0.200000 
" . ||| Arabization, and the ||| 0.200000 0.200000 0.600000 0.200000 0.600000 0.200000 
" . ||| Chairman is the ||| 0.200000 0.200000 0.600000 0.200000 0.600000 0.200000 
" . ||| Chairman of the ||| 0.200000 0.200000 0.600000 0.200000 0.200000 0.600000 
" . ||| Chairman of ||| 0.200000 0.200000 0.600000 0.200000 0.200000 0.600000 
" . ||| Egypt and ||| 0.200000 0.200000 0.600000 0.200000 0.200000 0.600000 
" . ||| Enough?" ||| 0.200000 0.200000 0.600000 0.600000 0.200000 0.200000 
" . ||| For his part, the head of the ||| 0.200000 0.200000 0.600000 0.200000 0.200000 0.600000 
" . ||| For his part, the head of ||| 0.200000 0.200000 0.600000 0.200000 0.200000 0.600000 
" . ||| For his part, the head ||| 0.200000 0.200000 0.600000 0.200000 0.200000 0.600000 
" . ||| For his part, the ||| 0.200000 0.200000 0.600000 0.200000 0.200000 0.600000 
" . ||| He shares the feelings of the ||| 0.200000 0.200000 0.600000 0.200000 0.600000 0.200000 
" . ||| He shares the feelings of ||| 0.200000 0.200000 0.600000 0.200000 0.200000 0.600000 
" . ||| He shares the feelings ||| 0.200000 0.200000 0.600000 0.200000 0.200000 0.600000 
" . ||| He shares the ||| 0.200000 0.200000 0.600000 0.200000 0.200000 0.600000 
" . ||| Intifada." ||| 0.600000 0.200000 0.200000 0.600000 0.200000 0.200000 
" . ||| Iranian society and the ||| 0.200000 0.200000 0.600000 0.200000 0.200000 0.600000 
" . ||| Iranian society and ||| 0.200000 0.200000 0.600000 0.200000 0.200000 0.600000 
" . ||| Iraq". ||| 0.200000 0.200000 0.600000 0.600000 0.200000 0.200000 
" . ||| Iraq." ||| 0.600000 0.200000 0.200000 0.600000 0.200000 0.200000 
" . ||| Islamic holy sites against the ||| 0.200000 0.200000 0.600000 0.200000 0.200000 0.600000 
" . ||| Lebanon." ||| 0.600000 0.200000 0.200000 0.600000 0.200000 0.200000 
" . ||| Not Enough?" ||| 0.200000 0.200000 0.600000 0.600000 0.200000 0.200000 
" . ||| Palestine." ||| 0.600000 0.200000 0.200000 0.600000 0.200000 0.200000 
" . ||| President of the ||| 0.200000 0.200000 0.600000 0.200000 0.200000 0.600000 
" . ||| President of ||| 0.200000 0.200000 0.600000 0.200000 0.200000 0.600000 
" . ||| Territories." ||| 0.200000 0.200000 0.600000 0.600000 0.200000 0.200000 
" . ||| The amendments are in the hands of ||| 0.200000 0.200000 0.600000 0.200000 0.200000 0.600000 
" . ||| This Not Enough?" ||| 0.600000 0.200000 0.200000 0.600000 0.200000 0.200000 
" . ||| This is ||| 0.200000 0.200000 0.600000 0.200000 0.200000 0.600000 
" . ||| Translation and Arabization, and the ||| 0.200000 0.200000 0.600000 0.200000 0.600000 0.200000 
" . ||| a half years with the ||| 0.200000 0.200000 0.600000 0.200000 0.600000 0.200000 
" . ||| a public ||| 0.200000 0.200000 0.600000 0.200000 0.200000 0.600000 
" . ||| a request by the ||| 0.200000 0.200000 0.600000 0.200000 0.200000 0.600000 
" . ||| a team and ||| 0.200000 0.200000 0.600000 0.200000 0.200000 0.600000 
" . ||| a ||| 0.090909 0.090909 0.818182 0.090909 0.090909 0.818182 
" . ||| acceptable for resistance to be called off ||| 0.200000 0.200000 0.600000 0.200000 0.200000 0.600000 
" . ||| acceptable for resistance to be called ||| 0.200000 0.200000 0.600000 0.200000 0.200000 0.600000 
" . ||| acceptable for resistance to be ||| 0.200000 0.200000 0.600000 0.200000 0.200000 0.600000 
" . ||| acceptable for resistance to ||| 0.200000 0.200000 0.600000 0.200000 0.200000 0.600000 
" . ||| added. ||| 0.200000 0.200000 0.600000 0.600000 0.200000 0.200000 
" . ||| against the ||| 0.200000 0.200000 0.600000 0.200000 0.200000 0.600000 
" . ||| agencies, and using the ||| 0.200000 0.200000 0.600000 0.200000 0.200000 0.600000 
" . ||| agreement with the ||| 0.200000 0.200000 0.600000 0.200000 0.600000 0.200000 
" . ||| alive." ||| 0.200000 0.200000 0.600000 0.600000 0.200000 0.200000 
" . ||| all the ||| 0.200000 0.200000 0.600000 0.200000 0.200000 0.600000 
" . ||| already installed there and ||| 0.200000 0.200000 0.600000 0.200000 0.600000 0.200000 
" . ||| also come to the ||| 0.200000 0.200000 0.600000 0.200000 0.200000 0.600000 
" . ||| also come to ||| 0.200000 0.200000 0.600000 0.200000 0.200000 0.600000 
" . ||| amendments are in the hands of ||| 0.200000 0.200000 0.600000 0.200000 0.200000 0.600000 
" . ||| an explosives ||| 0.200000 0.200000 0.600000 0.200000 0.200000 0.600000 
" . ||| an ||| 0.142857 0.142857 0.714286 0.142857 0.428571 0.428571 
" . ||| and Arab ||| 0.200000 0.200000 0.600000 0.200000 0.200000 0.600000 
" . ||| and Arabization, and the ||| 0.200000 0.200000 0.600000 0.200000 0.600000 0.200000 
" . ||| and History of the ||| 0.200000 0.200000 0.600000 0.200000 0.600000 0.200000 
" . ||| and History of ||| 0.200000 0.200000 0.600000 0.200000 0.200000 0.600000 
" . ||| and History ||| 0.200000 0.200000 0.600000 0.200000 0.200000 0.600000 
" . ||| and Ma'moun ||| 0.200000 0.200000 0.600000 0.200000 0.200000 0.600000 
" . ||| and Palestinians ||| 0.200000 0.200000 0.600000 0.200000 0.200000 0.600000 
" . ||| and a half years with the ||| 0.200000 0.200000 0.600000 0.200000 0.600000 0.200000 
" . ||| and a new project." ||| 0.200000 0.200000 0.600000 0.600000 0.200000 0.200000 
" . ||| and a new ||| 0.200000 0.200000 0.600000 0.200000 0.200000 0.600000 
" . ||| and a ||| 0.200000 0.200000 0.600000 0.200000 0.200000 0.600000 
" . ||| and agreement with the ||| 0.200000 0.200000 0.600000 0.200000 0.600000 0.200000 
" . ||| and awareness of its strong and weak ||| 0.600000 0.200000 0.200000 0.200000 0.200000 0.600000 
" . ||| and awareness of its strong and ||| 0.600000 0.200000 0.200000 0.200000 0.200000 0.600000 
" . ||| and awareness of its strong ||| 0.600000 0.200000 0.200000 0.200000 0.200000 0.600000 
" . ||| and awareness of its ||| 0.600000 0.200000 0.200000 0.200000 0.200000 0.600000 
" . ||| and awareness of ||| 0.600000 0.200000 0.200000 0.200000 0.200000 0.600000 
" . ||| and chaos." ||| 0.600000 0.200000 0.200000 0.600000 0.200000 0.200000 
" . ||| and execution." ||| 0.600000 0.200000 0.200000 0.600000 0.200000 0.200000 
" . ||| and for them to start their work." ||| 0.600000 0.200000 0.200000 0.600000 0.200000 0.200000 
" . ||| and its different problems." ||| 0.200000 0.200000 0.600000 0.600000 0.200000 0.200000 
" . ||| and its head to ||| 0.200000 0.200000 0.600000 0.200000 0.200000 0.600000 
" . ||| and move it in support of ||| 0.200000 0.200000 0.600000 0.200000 0.200000 0.600000 
" . ||| and solve the problem ||| 0.200000 0.200000 0.600000 0.200000 0.600000 0.200000 
" . ||| and solve the ||| 0.200000 0.200000 0.600000 0.200000 0.200000 0.600000 
" . ||| and stability." ||| 0.200000 0.200000 0.600000 0.600000 0.200000 0.200000 
" . ||| and that is the ||| 0.200000 0.200000 0.600000 0.200000 0.200000 0.600000 
" . ||| and the Chairman is the ||| 0.200000 0.200000 0.600000 0.200000 0.600000 0.200000 
" . ||| and the authorities fear the worst for ||| 0.200000 0.200000 0.600000 0.200000 0.200000 0.600000 
" . ||| and the authorities fear the worst ||| 0.200000 0.200000 0.600000 0.200000 0.200000 0.600000 
" . ||| and the authorities fear the ||| 0.200000 0.200000 0.600000 0.200000 0.200000 0.600000 
" . ||| and the case of the ||| 0.200000 0.200000 0.600000 0.200000 0.200000 0.600000 
" . ||| and the case of ||| 0.200000 0.200000 0.600000 0.200000 0.200000 0.600000 
" . ||| and the case ||| 0.200000 0.200000 0.600000 0.200000 0.200000 0.600000 
" . ||| and the conflict ||| 0.200000 0.200000 0.600000 0.200000 0.200000 0.600000 
" . ||| and the countries of the ||| 0.200000 0.200000 0.600000 0.200000 0.200000 0.600000 
" . ||| and the countries of ||| 0.200000 0.200000 0.600000 0.200000 0.200000 0.600000 
" . ||| and the countries ||| 0.200000 0.200000 0.600000 0.200000 0.200000 0.600000 
" . ||| and the intrusion of ||| 0.200000 0.200000 0.600000 0.200000 0.200000 0.600000 
" . ||| and the need for a military ||| 0.200000 0.200000 0.600000 0.200000 0.200000 0.600000 
" . ||| and the need for a ||| 0.200000 0.200000 0.600000 0.200000 0.200000 0.600000 
" . ||| and the need for ||| 0.200000 0.200000 0.600000 0.200000 0.200000 0.600000 
" . ||| and the need ||| 0.200000 0.200000 0.600000 0.200000 0.200000 0.600000 
" . ||| and the safety of ||| 0.200000 0.200000 0.600000 0.200000 0.200000 0.600000 
" . ||| and the safety ||| 0.200000 0.200000 0.600000 0.200000 0.200000 0.600000 
" . ||| and the ||| 0.043478 0.043478 0.913043 0.043478 0.217391 0.739130 
" . ||| and these ||| 0.200000 0.200000 0.600000 0.200000 0.600000 0.200000 
" . ||| and to avoid ||| 0.200000 0.200000 0.600000 0.200000 0.200000 0.600000 
" . ||| and to ||| 0.200000 0.200000 0.600000 0.200000 0.200000 0.600000 
" . ||| and units" carried out these orders. ||| 0.200000 0.200000 0.600000 0.600000 0.200000 0.200000 
" . ||| and using the ||| 0.200000 0.200000 0.600000 0.200000 0.200000 0.600000 
" . ||| and we will work ||| 0.200000 0.200000 0.600000 0.200000 0.200000 0.600000 
" . ||| and we will ||| 0.200000 0.200000 0.600000 0.200000 0.200000 0.600000 
" . ||| and we ||| 0.200000 0.200000 0.600000 0.200000 0.200000 0.600000 
" . ||| and will go on." ||| 0.600000 0.200000 0.200000 0.600000 0.200000 0.200000 
" . ||| and will go ||| 0.600000 0.200000 0.200000 0.200000 0.200000 0.600000 
" . ||| and will ||| 0.428571 0.142857 0.428571 0.142857 0.142857 0.714286 
" . ||| and ||| 0.060241 0.012048 0.927711 0.012048 0.228916 0.759036 
" . ||| are in the hands of ||| 0.200000 0.200000 0.600000 0.200000 0.200000 0.600000 
" . ||| are open." ||| 0.200000 0.200000 0.600000 0.600000 0.200000 0.200000 
" . ||| are studying the matter." ||| 0.200000 0.200000 0.600000 0.600000 0.200000 0.200000 
" . ||| are ||| 0.200000 0.200000 0.600000 0.200000 0.200000 0.600000 
" . ||| area." ||| 0.200000 0.200000 0.600000 0.600000 0.200000 0.200000 
" . ||| arrange the summit ||| 0.200000 0.200000 0.600000 0.200000 0.200000 0.600000 
" . ||| arrange the ||| 0.200000 0.200000 0.600000 0.200000 0.200000 0.600000 
" . ||| as part of what has come to ||| 0.200000 0.200000 0.600000 0.200000 0.200000 0.600000 
" . ||| as well as developing it to a ||| 0.600000 0.200000 0.200000 0.200000 0.200000 0.600000 
" . ||| as well as developing it to ||| 0.600000 0.200000 0.200000 0.200000 0.200000 0.600000 
" . ||| as well as developing it ||| 0.600000 0.200000 0.200000 0.200000 0.200000 0.600000 
" . ||| as well as developing ||| 0.600000 0.200000 0.200000 0.200000 0.200000 0.600000 
" . ||| as well as ||| 0.600000 0.200000 0.200000 0.200000 0.200000 0.600000 
" . ||| as well ||| 0.600000 0.200000 0.200000 0.200000 0.200000 0.600000 
" . ||| as ||| 0.777778 0.111111 0.111111 0.111111 0.111111 0.777778 
" . ||| assure the security of ||| 0.200000 0.200000 0.600000 0.200000 0.600000 0.200000 
" . ||| assure the security ||| 0.200000 0.200000 0.600000 0.200000 0.200000 0.600000 
" . ||| assure the ||| 0.200000 0.200000 0.600000 0.200000 0.200000 0.600000 
" . ||| at the edge of ||| 0.200000 0.200000 0.600000 0.200000 0.200000 0.600000 
" . ||| at the edge ||| 0.200000 0.200000 0.600000 0.200000 0.200000 0.600000 
" . ||| at the ||| 0.142857 0.142857 0.714286 0.142857 0.142857 0.714286 
" . ||| authorities fear the worst for the ||| 0.200000 0.200000 0.600000 0.200000 0.200000 0.600000 
" . ||| authorities fear the worst for ||| 0.200000 0.200000 0.600000 0.200000 0.200000 0.600000 
" . ||| authorities fear the worst ||| 0.200000 0.200000 0.600000 0.200000 0.200000 0.600000 
" . ||| authorities fear the ||| 0.200000 0.200000 0.600000 0.200000 0.200000 0.600000 
" . ||| awareness of its strong and weak points." ||| 0.200000 0.200000 0.600000 0.600000 0.200000 0.200000 
" . ||| awareness of its strong and weak ||| 0.200000 0.200000 0.600000 0.200000 0.200000 0.600000 
" . ||| awareness of its strong and ||| 0.200000 0.200000 0.600000 0.200000 0.200000 0.600000 
" . ||| awareness of its strong ||| 0.200000 0.200000 0.600000 0.200000 0.200000 0.600000 
" . ||| awareness of its ||| 0.200000 0.200000 0.600000 0.200000 0.200000 0.600000 
" . ||| awareness of ||| 0.200000 0.200000 0.600000 0.200000 0.200000 0.600000 
" . ||| back compared to the ||| 0.200000 0.200000 0.600000 0.200000 0.200000 0.600000 
" . ||| back compared to ||| 0.200000 0.200000 0.600000 0.200000 0.200000 0.600000 
" . ||| be happy with." ||| 0.200000 0.200000 0.600000 0.600000 0.200000 0.200000 
" . ||| be happy ||| 0.200000 0.200000 0.600000 0.200000 0.200000 0.600000 
" . ||| be just and to avoid ||| 0.200000 0.200000 0.600000 0.200000 0.200000 0.600000 
" . ||| be just and to ||| 0.200000 0.200000 0.600000 0.200000 0.200000 0.600000 
" . ||| be just and ||| 0.200000 0.200000 0.600000 0.200000 0.200000 0.600000 
" . ||| because "to ||| 0.200000 0.200000 0.600000 0.200000 0.200000 0.600000 
" . ||| becomes "Hilma" and ||| 0.200000 0.200000 0.600000 0.200000 0.600000 0.200000 
" . ||| blood presents the proof of ||| 0.200000 0.200000 0.600000 0.200000 0.200000 0.600000 
" . ||| board of ||| 0.200000 0.200000 0.600000 0.200000 0.200000 0.600000 
" . ||| boycotted by the people of ||| 0.200000 0.200000 0.600000 0.200000 0.600000 0.200000 
" . ||| bring ||| 0.200000 0.200000 0.600000 0.200000 0.200000 0.600000 
" . ||| by force and ||| 0.200000 0.200000 0.600000 0.200000 0.200000 0.600000 
" . ||| by the people of ||| 0.200000 0.200000 0.600000 0.200000 0.600000 0.200000 
" . ||| by the ||| 0.200000 0.200000 0.600000 0.200000 0.200000 0.600000 
" . ||| carried out these orders. ||| 0.200000 0.200000 0.600000 0.600000 0.200000 0.200000 
" . ||| carried the ||| 0.200000 0.200000 0.600000 0.200000 0.200000 0.600000 
" . ||| carried ||| 0.200000 0.200000 0.600000 0.200000 0.200000 0.600000 
" . ||| carry out maintenance work to ensure the ||| 0.200000 0.200000 0.600000 0.200000 0.600000 0.200000 
" . ||| chaos." ||| 0.200000 0.200000 0.600000 0.600000 0.200000 0.200000 
" . ||| clearly demonstrates the ||| 0.200000 0.200000 0.600000 0.200000 0.200000 0.600000 
" . ||| coat ||| 0.200000 0.200000 0.600000 0.200000 0.200000 0.600000 
" . ||| colonel." ||| 0.200000 0.200000 0.600000 0.600000 0.200000 0.200000 
" . ||| come to be known ||| 0.200000 0.200000 0.600000 0.200000 0.600000 0.200000 
" . ||| come to be ||| 0.200000 0.200000 0.600000 0.200000 0.200000 0.600000 
" . ||| come to the ||| 0.200000 0.200000 0.600000 0.200000 0.200000 0.600000 
" . ||| come to ||| 0.142857 0.142857 0.714286 0.142857 0.142857 0.714286 
" . ||| compared to the ||| 0.200000 0.200000 0.600000 0.200000 0.200000 0.600000 
" . ||| compared to ||| 0.200000 0.200000 0.600000 0.200000 0.200000 0.600000 
" . ||| compete for the ||| 0.200000 0.200000 0.600000 0.200000 0.600000 0.200000 
" . ||| concepts of sovereignty and ||| 0.200000 0.200000 0.600000 0.200000 0.600000 0.200000 
" . ||| conditions to ensure rapid deployment of ||| 0.200000 0.200000 0.600000 0.200000 0.600000 0.200000 
" . ||| cooperate with us to ||| 0.200000 0.200000 0.600000 0.200000 0.200000 0.600000 
" . ||| correct and ||| 0.200000 0.200000 0.600000 0.200000 0.600000 0.200000 
" . ||| countries." ||| 0.600000 0.200000 0.200000 0.600000 0.200000 0.200000 
" . ||| country." ||| 0.142857 0.142857 0.714286 0.714286 0.142857 0.142857 
" . ||| daily lives of ||| 0.200000 0.200000 0.600000 0.200000 0.200000 0.600000 
" . ||| dangerous policy". ||| 0.200000 0.200000 0.600000 0.600000 0.200000 0.200000 
" . ||| date of ||| 0.200000 0.200000 0.600000 0.200000 0.600000 0.200000 
" . ||| demands of the ||| 0.200000 0.200000 0.600000 0.200000 0.200000 0.600000 
" . ||| demands of ||| 0.200000 0.200000 0.600000 0.200000 0.200000 0.600000 
" . ||| demonstrated the solidarity ||| 0.200000 0.200000 0.600000 0.200000 0.600000 0.200000 
" . ||| demonstrated the ||| 0.200000 0.200000 0.600000 0.200000 0.200000 0.600000 
" . ||| demonstrates the ||| 0.200000 0.200000 0.600000 0.200000 0.200000 0.600000 
" . ||| deployment of ||| 0.200000 0.200000 0.600000 0.200000 0.600000 0.200000 
" . ||| did not handle the ||| 0.200000 0.200000 0.600000 0.200000 0.200000 0.600000 
" . ||| different problems." ||| 0.200000 0.200000 0.600000 0.600000 0.200000 0.200000 
" . ||| do not have the ||| 0.200000 0.200000 0.600000 0.200000 0.200000 0.600000 
" . ||| doing is no good." ||| 0.200000 0.200000 0.600000 0.600000 0.200000 0.200000 
" . ||| due time." ||| 0.200000 0.200000 0.600000 0.600000 0.200000 0.200000 
" . ||| due to the ||| 0.200000 0.200000 0.600000 0.200000 0.200000 0.600000 
" . ||| due to ||| 0.200000 0.200000 0.600000 0.200000 0.200000 0.600000 
" . ||| during the era of ||| 0.200000 0.200000 0.600000 0.200000 0.200000 0.600000 
" . ||| elements of our ||| 0.200000 0.200000 0.600000 0.200000 0.200000 0.600000 
" . ||| elements of ||| 0.200000 0.200000 0.600000 0.200000 0.200000 0.600000 
" . ||| ensure rapid deployment of ||| 0.200000 0.200000 0.600000 0.200000 0.600000 0.200000 
" . ||| ensure the safety of ||| 0.200000 0.200000 0.600000 0.200000 0.200000 0.600000 
" . ||| ensure the safety ||| 0.200000 0.200000 0.600000 0.200000 0.200000 0.600000 
" . ||| ensure the ||| 0.111111 0.111111 0.777778 0.111111 0.333333 0.555556 
" . ||| era and its different problems." ||| 0.200000 0.200000 0.600000 0.600000 0.200000 0.200000 
" . ||| era of ||| 0.200000 0.200000 0.600000 0.200000 0.200000 0.600000 
" . ||| evenings in addition ||| 0.200000 0.200000 0.600000 0.200000 0.200000 0.600000 
" . ||| evenings in ||| 0.200000 0.200000 0.600000 0.200000 0.200000 0.600000 
" . ||| example, becomes "Hilma" and ||| 0.200000 0.200000 0.600000 0.200000 0.600000 0.200000 
" . ||| example, similar to ||| 0.200000 0.200000 0.600000 0.200000 0.200000 0.600000 
" . ||| explained, ||| 0.200000 0.200000 0.600000 0.200000 0.200000 0.600000 
" . ||| fear the worst for the ||| 0.200000 0.200000 0.600000 0.200000 0.200000 0.600000 
" . ||| fear the worst for ||| 0.200000 0.200000 0.600000 0.200000 0.200000 0.600000 
" . ||| fear the worst ||| 0.200000 0.200000 0.600000 0.200000 0.200000 0.600000 
" . ||| fear the ||| 0.200000 0.200000 0.600000 0.200000 0.200000 0.600000 
" . ||| fodder with the ||| 0.200000 0.200000 0.600000 0.200000 0.600000 0.200000 
" . ||| following a request by the ||| 0.200000 0.200000 0.600000 0.200000 0.200000 0.600000 
" . ||| for example, becomes "Hilma" and ||| 0.200000 0.200000 0.600000 0.200000 0.600000 0.200000 
" . ||| for example, similar to ||| 0.200000 0.200000 0.600000 0.200000 0.200000 0.600000 
" . ||| for resistance to be called off while ||| 0.200000 0.200000 0.600000 0.200000 0.200000 0.600000 
" . ||| for resistance to be called off ||| 0.200000 0.200000 0.600000 0.200000 0.200000 0.600000 
" . ||| for resistance to be called ||| 0.200000 0.200000 0.600000 0.200000 0.200000 0.600000 
" . ||| for resistance to be ||| 0.200000 0.200000 0.600000 0.200000 0.200000 0.600000 
" . ||| for resistance to ||| 0.200000 0.200000 0.600000 0.200000 0.200000 0.600000 
" . ||| for the Palestinians because it is one ||| 0.200000 0.200000 0.600000 0.200000 0.200000 0.600000 
" . ||| for the Palestinians because it is ||| 0.200000 0.200000 0.600000 0.200000 0.200000 0.600000 
" . ||| for the Palestinians because it ||| 0.200000 0.200000 0.600000 0.200000 0.200000 0.600000 
" . ||| for the Palestinians because ||| 0.200000 0.200000 0.600000 0.200000 0.200000 0.600000 
" . ||| for the Palestinians ||| 0.200000 0.200000 0.600000 0.200000 0.200000 0.600000 
" . ||| for the ||| 0.142857 0.142857 0.714286 0.142857 0.428571 0.428571 
" . ||| for them to start their work." ||| 0.200000 0.200000 0.600000 0.600000 0.200000 0.200000 
" . ||| force and ||| 0.200000 0.200000 0.600000 0.200000 0.200000 0.600000 
" . ||| four goals." ||| 0.200000 0.200000 0.600000 0.600000 0.200000 0.200000 
" . ||| freedom and the safety of ||| 0.200000 0.200000 0.600000 0.200000 0.200000 0.600000 
" . ||| freedom and the safety ||| 0.200000 0.200000 0.600000 0.200000 0.200000 0.600000 
" . ||| freedom and the ||| 0.200000 0.200000 0.600000 0.200000 0.200000 0.600000 
" . ||| friends ||| 0.200000 0.200000 0.600000 0.200000 0.200000 0.600000 
" . ||| from the date of ||| 0.200000 0.200000 0.600000 0.200000 0.600000 0.200000 
" . ||| get ||| 0.200000 0.200000 0.600000 0.200000 0.200000 0.600000 
" . ||| goals." ||| 0.200000 0.200000 0.600000 0.600000 0.200000 0.200000 
" . ||| good." ||| 0.200000 0.200000 0.600000 0.600000 0.200000 0.200000 
" . ||| half years with the ||| 0.200000 0.200000 0.600000 0.200000 0.600000 0.200000 
" . ||| handle the ||| 0.200000 0.200000 0.600000 0.200000 0.200000 0.600000 
" . ||| hands of ||| 0.200000 0.200000 0.600000 0.200000 0.200000 0.600000 
" . ||| happened to ||| 0.200000 0.200000 0.600000 0.200000 0.200000 0.600000 
" . ||| happy with." ||| 0.200000 0.200000 0.600000 0.600000 0.200000 0.200000 
" . ||| happy ||| 0.200000 0.200000 0.600000 0.200000 0.200000 0.600000 
" . ||| harm Egypt and ||| 0.200000 0.200000 0.600000 0.200000 0.200000 0.600000 
" . ||| has come to be known ||| 0.200000 0.200000 0.600000 0.200000 0.600000 0.200000 
" . ||| has come to be ||| 0.200000 0.200000 0.600000 0.200000 0.200000 0.600000 
" . ||| has come to ||| 0.200000 0.200000 0.600000 0.200000 0.200000 0.600000 
" . ||| has never happened to ||| 0.200000 0.200000 0.600000 0.200000 0.200000 0.600000 
" . ||| have loved them more." ||| 0.200000 0.200000 0.600000 0.600000 0.200000 0.200000 
" . ||| have the ||| 0.200000 0.200000 0.600000 0.200000 0.200000 0.600000 
" . ||| he added. ||| 0.200000 0.200000 0.600000 0.600000 0.200000 0.200000 
" . ||| he said: ||| 0.200000 0.200000 0.600000 0.200000 0.200000 0.600000 
" . ||| head to ||| 0.200000 0.200000 0.600000 0.200000 0.200000 0.600000 
" . ||| him." ||| 0.200000 0.200000 0.600000 0.600000 0.200000 0.200000 
" . ||| his part, the head of the delegation ||| 0.200000 0.200000 0.600000 0.200000 0.200000 0.600000 
" . ||| his part, the head of the ||| 0.200000 0.200000 0.600000 0.200000 0.200000 0.600000 
" . ||| his part, the head of ||| 0.200000 0.200000 0.600000 0.200000 0.200000 0.600000 
" . ||| his part, the head ||| 0.200000 0.200000 0.600000 0.200000 0.200000 0.600000 
" . ||| his part, the ||| 0.200000 0.200000 0.600000 0.200000 0.200000 0.600000 
" . ||| holy sites against the ||| 0.200000 0.200000 0.600000 0.200000 0.200000 0.600000 
" . ||| hostages. He shares the feelings of the ||| 0.200000 0.200000 0.600000 0.200000 0.600000 0.200000 
" . ||| hostages. He shares the feelings of ||| 0.200000 0.200000 0.600000 0.200000 0.200000 0.600000 
" . ||| hostages. He shares the feelings ||| 0.200000 0.200000 0.600000 0.200000 0.200000 0.600000 
" . ||| hostages. He shares the ||| 0.200000 0.200000 0.600000 0.200000 0.200000 0.600000 
" . ||| important for the Palestinians because it is ||| 0.200000 0.200000 0.600000 0.200000 0.200000 0.600000 
" . ||| important for the Palestinians because it ||| 0.200000 0.200000 0.600000 0.200000 0.200000 0.600000 
" . ||| important for the Palestinians because ||| 0.200000 0.200000 0.600000 0.200000 0.200000 0.600000 
" . ||| important for the Palestinians ||| 0.200000 0.200000 0.600000 0.200000 0.200000 0.600000 
" . ||| important for the ||| 0.200000 0.200000 0.600000 0.200000 0.200000 0.600000 
" . ||| important." ||| 0.200000 0.200000 0.600000 0.600000 0.200000 0.200000 
" . ||| in addition ||| 0.200000 0.200000 0.600000 0.200000 0.200000 0.600000 
" . ||| in due time." ||| 0.200000 0.200000 0.600000 0.600000 0.200000 0.200000 
" . ||| in return for a ||| 0.200000 0.200000 0.600000 0.200000 0.200000 0.600000 
" . ||| in return for ||| 0.200000 0.200000 0.600000 0.200000 0.200000 0.600000 
" . ||| in return ||| 0.200000 0.200000 0.600000 0.200000 0.200000 0.600000 
" . ||| in support of ||| 0.200000 0.200000 0.600000 0.200000 0.200000 0.600000 
" . ||| in the hands of ||| 0.200000 0.200000 0.600000 0.200000 0.200000 0.600000 
" . ||| in the person of ||| 0.200000 0.200000 0.600000 0.200000 0.200000 0.600000 
" . ||| in ||| 0.111111 0.111111 0.777778 0.111111 0.333333 0.555556 
" . ||| installed there and ||| 0.200000 0.200000 0.600000 0.200000 0.600000 0.200000 
" . ||| into fodder with the ||| 0.200000 0.200000 0.600000 0.200000 0.600000 0.200000 
" . ||| intrusion of ||| 0.200000 0.200000 0.600000 0.200000 0.200000 0.600000 
" . ||| is a mission." ||| 0.200000 0.200000 0.600000 0.600000 0.200000 0.200000 
" . ||| is a ||| 0.200000 0.200000 0.600000 0.200000 0.200000 0.600000 
" . ||| is no good." ||| 0.200000 0.200000 0.600000 0.600000 0.200000 0.200000 
" . ||| is not acceptable for resistance to be ||| 0.200000 0.200000 0.600000 0.200000 0.200000 0.600000 
" . ||| is not acceptable for resistance to ||| 0.200000 0.200000 0.600000 0.200000 0.200000 0.600000 
" . ||| is the ||| 0.142857 0.142857 0.714286 0.142857 0.428571 0.428571 
" . ||| is valid from the date of ||| 0.200000 0.200000 0.600000 0.200000 0.600000 0.200000 
" . ||| is ||| 0.142857 0.142857 0.714286 0.142857 0.142857 0.714286 
" . ||| it and the ||| 0.200000 0.200000 0.600000 0.200000 0.200000 0.600000 
" . ||| it and ||| 0.200000 0.200000 0.600000 0.200000 0.200000 0.600000 
" . ||| it in support of ||| 0.200000 0.200000 0.600000 0.200000 0.200000 0.600000 
" . ||| it." ||| 0.272727 0.090909 0.636364 0.818182 0.090909 0.090909 
" . ||| its different problems." ||| 0.200000 0.200000 0.600000 0.600000 0.200000 0.200000 
" . ||| its head to ||| 0.200000 0.200000 0.600000 0.200000 0.200000 0.600000 
" . ||| just and to avoid ||| 0.200000 0.200000 0.600000 0.200000 0.200000 0.600000 
" . ||| just and to ||| 0.200000 0.200000 0.600000 0.200000 0.200000 0.600000 
" . ||| just and ||| 0.200000 0.200000 0.600000 0.200000 0.200000 0.600000 
" . ||| just ruling." ||| 0.600000 0.200000 0.200000 0.600000 0.200000 0.200000 
" . ||| keep the Palestinian people ||| 0.200000 0.200000 0.600000 0.200000 0.200000 0.600000 
" . ||| keep the Palestinian ||| 0.200000 0.200000 0.600000 0.200000 0.200000 0.600000 
" . ||| keep the ||| 0.200000 0.200000 0.600000 0.200000 0.200000 0.600000 
" . ||| level of ||| 0.200000 0.200000 0.600000 0.200000 0.600000 0.200000 
" . ||| like me." ||| 0.200000 0.200000 0.600000 0.600000 0.200000 0.200000 
" . ||| line at the edge of ||| 0.200000 0.200000 0.600000 0.200000 0.200000 0.600000 
" . ||| line at the edge ||| 0.200000 0.200000 0.600000 0.200000 0.200000 0.600000 
" . ||| line at the ||| 0.200000 0.200000 0.600000 0.200000 0.200000 0.600000 
" . ||| lives of ||| 0.200000 0.200000 0.600000 0.200000 0.200000 0.600000 
" . ||| loved them more." ||| 0.200000 0.200000 0.600000 0.600000 0.200000 0.200000 
" . ||| made the movement of ||| 0.200000 0.200000 0.600000 0.200000 0.600000 0.200000 
" . ||| made the movement ||| 0.200000 0.200000 0.600000 0.200000 0.200000 0.600000 
" . ||| made the ||| 0.200000 0.200000 0.600000 0.200000 0.200000 0.600000 
" . ||| maintenance work to ensure the ||| 0.200000 0.200000 0.600000 0.200000 0.600000 0.200000 
" . ||| matter." ||| 0.200000 0.200000 0.600000 0.600000 0.200000 0.200000 
" . ||| me." ||| 0.200000 0.200000 0.600000 0.600000 0.200000 0.200000 
" . ||| meet the challenges of the ||| 0.200000 0.200000 0.600000 0.200000 0.600000 0.200000 
" . ||| meet the challenges of ||| 0.200000 0.200000 0.600000 0.200000 0.200000 0.600000 
" . ||| meet the challenges ||| 0.200000 0.200000 0.600000 0.200000 0.200000 0.600000 
" . ||| meet the ||| 0.200000 0.200000 0.600000 0.200000 0.200000 0.600000 
" . ||| more." ||| 0.200000 0.200000 0.600000 0.600000 0.200000 0.200000 
" . ||| move it in support of ||| 0.200000 0.200000 0.600000 0.200000 0.200000 0.600000 
" . ||| mutual understanding and agreement with the ||| 0.200000 0.200000 0.600000 0.200000 0.600000 0.200000 
" . ||| nation". ||| 0.600000 0.200000 0.200000 0.600000 0.200000 0.200000 
" . ||| necessary conditions to ensure rapid deployment of ||| 0.200000 0.200000 0.600000 0.200000 0.600000 0.200000 
" . ||| never happened to ||| 0.200000 0.200000 0.600000 0.200000 0.200000 0.600000 
" . ||| no good." ||| 0.200000 0.200000 0.600000 0.600000 0.200000 0.200000 
" . ||| not acceptable for resistance to be called ||| 0.200000 0.200000 0.600000 0.200000 0.200000 0.600000 
" . ||| not acceptable for resistance to be ||| 0.200000 0.200000 0.600000 0.200000 0.200000 0.600000 
" . ||| not acceptable for resistance to ||| 0.200000 0.200000 0.600000 0.200000 0.200000 0.600000 
" . ||| not handle the ||| 0.200000 0.200000 0.600000 0.200000 0.200000 0.600000 
" . ||| not have the ||| 0.200000 0.200000 0.600000 0.200000 0.200000 0.600000 
" . ||| of arms and ||| 0.200000 0.200000 0.600000 0.200000 0.600000 0.200000 
" . ||| of arms ||| 0.200000 0.200000 0.600000 0.200000 0.200000 0.600000 
" . ||| of both ||| 0.200000 0.200000 0.600000 0.200000 0.600000 0.200000 
" . ||| of its strong and weak points." ||| 0.200000 0.200000 0.600000 0.600000 0.200000 0.200000 
" . ||| of its strong and weak ||| 0.200000 0.200000 0.600000 0.200000 0.200000 0.600000 
" . ||| of its strong and ||| 0.200000 0.200000 0.600000 0.200000 0.200000 0.600000 
" . ||| of its strong ||| 0.200000 0.200000 0.600000 0.200000 0.200000 0.600000 
" . ||| of its technical and ||| 0.200000 0.200000 0.600000 0.200000 0.200000 0.600000 
" . ||| of its technical ||| 0.200000 0.200000 0.600000 0.200000 0.200000 0.600000 
" . ||| of its ||| 0.142857 0.142857 0.714286 0.142857 0.142857 0.714286 
" . ||| of mutual understanding and agreement with the ||| 0.200000 0.200000 0.600000 0.200000 0.600000 0.200000 
" . ||| of our ||| 0.200000 0.200000 0.600000 0.200000 0.200000 0.600000 
" . ||| of sovereignty and ||| 0.200000 0.200000 0.600000 0.200000 0.600000 0.200000 
" . ||| of terrorism." ||| 0.200000 0.200000 0.600000 0.600000 0.200000 0.200000 
" . ||| of the Arabs, for ||| 0.200000 0.200000 0.600000 0.200000 0.200000 0.600000 
" . ||| of the Arabs, ||| 0.200000 0.200000 0.600000 0.200000 0.200000 0.600000 
" . ||| of the Vice ||| 0.600000 0.200000 0.200000 0.200000 0.200000 0.600000 
" . ||| of the age ||| 0.200000 0.200000 0.600000 0.200000 0.200000 0.600000 
" . ||| of the atmosphere ||| 0.200000 0.200000 0.600000 0.200000 0.200000 0.600000 
" . ||| of the nation ||| 0.200000 0.200000 0.600000 0.200000 0.200000 0.600000 
" . ||| of the ||| 0.081081 0.027027 0.891892 0.027027 0.081081 0.891892 
" . ||| of their own freedom and the safety ||| 0.200000 0.200000 0.600000 0.200000 0.200000 0.600000 
" . ||| of their own freedom and the ||| 0.200000 0.200000 0.600000 0.200000 0.200000 0.600000 
" . ||| of them." ||| 0.600000 0.200000 0.200000 0.600000 0.200000 0.200000 
" . ||| of those present who ||| 0.200000 0.200000 0.600000 0.200000 0.200000 0.600000 
" . ||| of those present ||| 0.200000 0.200000 0.600000 0.200000 0.200000 0.600000 
" . ||| of those ||| 0.200000 0.200000 0.600000 0.200000 0.200000 0.600000 
" . ||| of time to arrange the summit ||| 0.200000 0.200000 0.600000 0.200000 0.200000 0.600000 
" . ||| of time to arrange the ||| 0.200000 0.200000 0.600000 0.200000 0.200000 0.600000 
" . ||| of what has come to be known ||| 0.200000 0.200000 0.600000 0.200000 0.600000 0.200000 
" . ||| of what has come to be ||| 0.200000 0.200000 0.600000 0.200000 0.200000 0.600000 
" . ||| of what has come to ||| 0.200000 0.200000 0.600000 0.200000 0.200000 0.600000 
" . ||| of ||| 0.024793 0.008264 0.966942 0.008264 0.223140 0.768595 
" . ||| on the ||| 0.200000 0.200000 0.600000 0.200000 0.200000 0.600000 
" . ||| one and a half years with the ||| 0.200000 0.200000 0.600000 0.200000 0.600000 0.200000 
" . ||| opportunities are open." ||| 0.600000 0.200000 0.200000 0.600000 0.200000 0.200000 
" . ||| opportunities are ||| 0.600000 0.200000 0.200000 0.200000 0.200000 0.600000 
" . ||| orders. ||| 0.200000 0.200000 0.600000 0.600000 0.200000 0.200000 
" . ||| our area." ||| 0.200000 0.200000 0.600000 0.600000 0.200000 0.200000 
" . ||| our ||| 0.200000 0.200000 0.600000 0.200000 0.600000 0.200000 
" . ||| out maintenance work to ensure the ||| 0.200000 0.200000 0.600000 0.200000 0.600000 0.200000 
" . ||| out these orders. ||| 0.200000 0.200000 0.600000 0.600000 0.200000 0.200000 
" . ||| own freedom and the safety of ||| 0.200000 0.200000 0.600000 0.200000 0.200000 0.600000 
" . ||| own freedom and the safety ||| 0.200000 0.200000 0.600000 0.200000 0.200000 0.600000 
" . ||| own freedom and the ||| 0.200000 0.200000 0.600000 0.200000 0.200000 0.600000 
" . ||| own shed blood presents the proof of ||| 0.200000 0.200000 0.600000 0.200000 0.200000 0.600000 
" . ||| parliament in the person of ||| 0.200000 0.200000 0.600000 0.200000 0.200000 0.600000 
" . ||| part of the ||| 0.200000 0.200000 0.600000 0.200000 0.200000 0.600000 
" . ||| part of what has come to be ||| 0.200000 0.200000 0.600000 0.200000 0.200000 0.600000 
" . ||| part of what has come to ||| 0.200000 0.200000 0.600000 0.200000 0.200000 0.600000 
" . ||| part of ||| 0.200000 0.200000 0.600000 0.200000 0.200000 0.600000 
" . ||| part, the head of the delegation ||| 0.200000 0.200000 0.600000 0.200000 0.200000 0.600000 
" . ||| part, the head of the ||| 0.200000 0.200000 0.600000 0.200000 0.200000 0.600000 
" . ||| part, the head of ||| 0.200000 0.200000 0.600000 0.200000 0.200000 0.600000 
" . ||| part, the head ||| 0.200000 0.200000 0.600000 0.200000 0.200000 0.600000 
" . ||| part, the ||| 0.200000 0.200000 0.600000 0.200000 0.200000 0.600000 
" . ||| people of ||| 0.200000 0.200000 0.600000 0.200000 0.600000 0.200000 
" . ||| people." ||| 0.600000 0.200000 0.200000 0.600000 0.200000 0.200000 
" . ||| person of ||| 0.200000 0.200000 0.600000 0.200000 0.200000 0.600000 
" . ||| pet into fodder with the ||| 0.200000 0.200000 0.600000 0.200000 0.600000 0.200000 
" . ||| place." ||| 0.200000 0.200000 0.600000 0.600000 0.200000 0.200000 
" . ||| policy". ||| 0.200000 0.200000 0.600000 0.600000 0.200000 0.200000 
" . ||| presents the proof of ||| 0.200000 0.200000 0.600000 0.200000 0.200000 0.600000 
" . ||| presidential coat ||| 0.600000 0.200000 0.200000 0.200000 0.200000 0.600000 
" . ||| private sector." ||| 0.200000 0.200000 0.600000 0.600000 0.200000 0.200000 
" . ||| problems." ||| 0.200000 0.200000 0.600000 0.600000 0.200000 0.200000 
" . ||| process. ||| 0.200000 0.200000 0.600000 0.200000 0.200000 0.600000 
" . ||| proof of ||| 0.200000 0.200000 0.600000 0.200000 0.200000 0.600000 
" . ||| rapid deployment of ||| 0.200000 0.200000 0.600000 0.200000 0.600000 0.200000 
" . ||| request by the ||| 0.200000 0.200000 0.600000 0.200000 0.200000 0.600000 
" . ||| resistance to be called off while the ||| 0.200000 0.200000 0.600000 0.200000 0.200000 0.600000 
" . ||| resistance to be called off while ||| 0.200000 0.200000 0.600000 0.200000 0.200000 0.600000 
" . ||| resistance to be called off ||| 0.200000 0.200000 0.600000 0.200000 0.200000 0.600000 
" . ||| resistance to be called ||| 0.200000 0.200000 0.600000 0.200000 0.200000 0.600000 
" . ||| resistance to be ||| 0.200000 0.200000 0.600000 0.200000 0.200000 0.600000 
" . ||| resistance to ||| 0.200000 0.200000 0.600000 0.200000 0.200000 0.600000 
" . ||| resolution is valid from the date of ||| 0.200000 0.200000 0.600000 0.200000 0.600000 0.200000 
" . ||| result of the atmosphere ||| 0.200000 0.200000 0.600000 0.200000 0.200000 0.600000 
" . ||| result of the ||| 0.200000 0.200000 0.600000 0.200000 0.200000 0.600000 
" . ||| result of ||| 0.200000 0.200000 0.600000 0.200000 0.200000 0.600000 
" . ||| ruling." ||| 0.200000 0.200000 0.600000 0.600000 0.200000 0.200000 
" . ||| said: ||| 0.200000 0.200000 0.600000 0.200000 0.200000 0.600000 
" . ||| same subject, he said: ||| 0.200000 0.200000 0.600000 0.200000 0.200000 0.600000 
" . ||| saying that ||| 0.200000 0.200000 0.600000 0.200000 0.200000 0.600000 
" . ||| sector." ||| 0.200000 0.200000 0.600000 0.600000 0.200000 0.200000 
" . ||| security and stability." ||| 0.600000 0.200000 0.200000 0.600000 0.200000 0.200000 
" . ||| several steps back compared to the ||| 0.200000 0.200000 0.600000 0.200000 0.200000 0.600000 
" . ||| several steps back compared to ||| 0.200000 0.200000 0.600000 0.200000 0.200000 0.600000 
" . ||| shed blood presents the proof of ||| 0.200000 0.200000 0.600000 0.200000 0.200000 0.600000 
" . ||| show in due time." ||| 0.600000 0.200000 0.200000 0.600000 0.200000 0.200000 
" . ||| similar to ||| 0.200000 0.200000 0.600000 0.200000 0.200000 0.600000 
" . ||| sites against the ||| 0.200000 0.200000 0.600000 0.200000 0.200000 0.600000 
" . ||| society and the ||| 0.200000 0.200000 0.600000 0.200000 0.200000 0.600000 
" . ||| society and ||| 0.200000 0.200000 0.600000 0.200000 0.200000 0.600000 
" . ||| solve the problem ||| 0.200000 0.200000 0.600000 0.200000 0.600000 0.200000 
" . ||| solve the ||| 0.200000 0.200000 0.600000 0.200000 0.200000 0.600000 
" . ||| sovereignty and ||| 0.200000 0.200000 0.600000 0.200000 0.600000 0.200000 
" . ||| stability." ||| 0.142857 0.142857 0.714286 0.428571 0.142857 0.428571 
" . ||| start their work." ||| 0.200000 0.200000 0.600000 0.600000 0.200000 0.200000 
" . ||| state." ||| 0.200000 0.200000 0.600000 0.600000 0.200000 0.200000 
" . ||| steps back compared to the ||| 0.200000 0.200000 0.600000 0.200000 0.200000 0.600000 
" . ||| steps back compared to ||| 0.200000 0.200000 0.600000 0.200000 0.200000 0.600000 
" . ||| stop the works to transform the ||| 0.200000 0.200000 0.600000 0.200000 0.600000 0.200000 
" . ||| studying the matter." ||| 0.200000 0.200000 0.600000 0.600000 0.200000 0.200000 
" . ||| subject, he said: ||| 0.200000 0.200000 0.600000 0.200000 0.200000 0.600000 
" . ||| support of ||| 0.200000 0.200000 0.600000 0.200000 0.200000 0.600000 
" . ||| taken the ||| 0.200000 0.200000 0.600000 0.200000 0.200000 0.600000 
" . ||| target and the ||| 0.200000 0.200000 0.600000 0.200000 0.600000 0.200000 
" . ||| target and ||| 0.200000 0.200000 0.600000 0.200000 0.200000 0.600000 
" . ||| team and ||| 0.200000 0.200000 0.600000 0.200000 0.200000 0.600000 
" . ||| television station to the ||| 0.200000 0.200000 0.600000 0.200000 0.200000 0.600000 
" . ||| television station to ||| 0.200000 0.200000 0.600000 0.200000 0.200000 0.600000 
" . ||| terrorism." ||| 0.200000 0.200000 0.600000 0.600000 0.200000 0.200000 
" . ||| terrorist ||| 0.200000 0.200000 0.600000 0.200000 0.200000 0.600000 
" . ||| thank him." ||| 0.200000 0.200000 0.600000 0.600000 0.200000 0.200000 
" . ||| that is the ||| 0.200000 0.200000 0.600000 0.200000 0.200000 0.600000 
" . ||| that it creates for itself ||| 0.200000 0.200000 0.600000 0.200000 0.200000 0.600000 
" . ||| that it creates for ||| 0.200000 0.200000 0.600000 0.200000 0.200000 0.600000 
" . ||| that it creates ||| 0.200000 0.200000 0.600000 0.200000 0.200000 0.600000 
" . ||| that it ||| 0.200000 0.200000 0.600000 0.200000 0.200000 0.600000 
" . ||| that ||| 0.111111 0.111111 0.777778 0.111111 0.111111 0.777778 
" . ||| the "World ||| 0.200000 0.200000 0.600000 0.200000 0.600000 0.200000 
" . ||| the Accord and ||| 0.200000 0.200000 0.600000 0.200000 0.200000 0.600000 
" . ||| the Accord ||| 0.200000 0.200000 0.600000 0.200000 0.200000 0.600000 
" . ||| the Americans as ||| 0.200000 0.200000 0.600000 0.200000 0.200000 0.600000 
" . ||| the Americans to the ||| 0.200000 0.200000 0.600000 0.200000 0.600000 0.200000 
" . ||| the Americans will get ||| 0.200000 0.200000 0.600000 0.200000 0.200000 0.600000 
" . ||| the Americans ||| 0.200000 0.200000 0.600000 0.200000 0.200000 0.600000 
" . ||| the Arabs, for ||| 0.200000 0.200000 0.600000 0.200000 0.200000 0.600000 
" . ||| the Arabs, ||| 0.200000 0.200000 0.600000 0.200000 0.200000 0.600000 
" . ||| the Chairman is the ||| 0.200000 0.200000 0.600000 0.200000 0.600000 0.200000 
" . ||| the Kingdom ||| 0.200000 0.200000 0.600000 0.200000 0.200000 0.600000 
" . ||| the Lebanese ||| 0.200000 0.200000 0.600000 0.200000 0.200000 0.600000 
" . ||| the Palestinian people ||| 0.200000 0.200000 0.600000 0.200000 0.200000 0.600000 
" . ||| the Palestinian ||| 0.200000 0.200000 0.600000 0.200000 0.200000 0.600000 
" . ||| the Palestinians because it is one of ||| 0.200000 0.200000 0.600000 0.200000 0.200000 0.600000 
" . ||| the Palestinians because it is one ||| 0.200000 0.200000 0.600000 0.200000 0.200000 0.600000 
" . ||| the Palestinians because it is ||| 0.200000 0.200000 0.600000 0.200000 0.200000 0.600000 
" . ||| the Palestinians because it ||| 0.200000 0.200000 0.600000 0.200000 0.200000 0.600000 
" . ||| the Palestinians because ||| 0.200000 0.200000 0.600000 0.200000 0.200000 0.600000 
" . ||| the Palestinians ||| 0.200000 0.200000 0.600000 0.200000 0.200000 0.600000 
" . ||| the Territories." ||| 0.200000 0.200000 0.600000 0.600000 0.200000 0.200000 
" . ||| the atmosphere was extremely ||| 0.200000 0.200000 0.600000 0.200000 0.200000 0.600000 
" . ||| the atmosphere was ||| 0.200000 0.200000 0.600000 0.200000 0.200000 0.600000 
" . ||| the atmosphere ||| 0.200000 0.200000 0.600000 0.200000 0.200000 0.600000 
" . ||| the authorities fear the worst for the ||| 0.200000 0.200000 0.600000 0.200000 0.200000 0.600000 
" . ||| the authorities fear the worst for ||| 0.200000 0.200000 0.600000 0.200000 0.200000 0.600000 
" . ||| the authorities fear the worst ||| 0.200000 0.200000 0.600000 0.200000 0.200000 0.600000 
" . ||| the authorities fear the ||| 0.200000 0.200000 0.600000 0.200000 0.200000 0.600000 
" . ||| the basis of which the ||| 0.200000 0.200000 0.600000 0.200000 0.600000 0.200000 
" . ||| the basis of which ||| 0.200000 0.200000 0.600000 0.200000 0.200000 0.600000 
" . ||| the basis of ||| 0.200000 0.200000 0.600000 0.200000 0.200000 0.600000 
" . ||| the basis ||| 0.200000 0.200000 0.600000 0.200000 0.200000 0.600000 
" . ||| the board of ||| 0.200000 0.200000 0.600000 0.200000 0.200000 0.600000 
" . ||| the challenges of the ||| 0.200000 0.200000 0.600000 0.200000 0.600000 0.200000 
" . ||| the challenges of ||| 0.200000 0.200000 0.600000 0.200000 0.200000 0.600000 
" . ||| the challenges ||| 0.200000 0.200000 0.600000 0.200000 0.200000 0.600000 
" . ||| the characteristics of ||| 0.200000 0.200000 0.600000 0.200000 0.200000 0.600000 
" . ||| the characteristics ||| 0.200000 0.200000 0.600000 0.200000 0.200000 0.600000 
" . ||| the concepts of sovereignty and ||| 0.200000 0.200000 0.600000 0.200000 0.600000 0.200000 
" . ||| the date of ||| 0.200000 0.200000 0.600000 0.200000 0.600000 0.200000 
" . ||| the demands of the ||| 0.200000 0.200000 0.600000 0.200000 0.200000 0.600000 
" . ||| the demands of ||| 0.200000 0.200000 0.600000 0.200000 0.200000 0.600000 
" . ||| the difficult economic and ||| 0.200000 0.200000 0.600000 0.200000 0.200000 0.600000 
" . ||| the difficult economic ||| 0.200000 0.200000 0.600000 0.200000 0.200000 0.600000 
" . ||| the difficult ||| 0.200000 0.200000 0.600000 0.200000 0.200000 0.600000 
" . ||| the edge of ||| 0.200000 0.200000 0.600000 0.200000 0.200000 0.600000 
" . ||| the edge ||| 0.200000 0.200000 0.600000 0.200000 0.200000 0.600000 
" . ||| the elements of our ||| 0.200000 0.200000 0.600000 0.200000 0.200000 0.600000 
" . ||| the elements of ||| 0.200000 0.200000 0.600000 0.200000 0.200000 0.600000 
" . ||| the era of ||| 0.200000 0.200000 0.600000 0.200000 0.200000 0.600000 
" . ||| the hands of ||| 0.200000 0.200000 0.600000 0.200000 0.200000 0.600000 
" . ||| the head of the delegation ||| 0.200000 0.200000 0.600000 0.200000 0.200000 0.600000 
" . ||| the head of the ||| 0.200000 0.200000 0.600000 0.200000 0.200000 0.600000 
" . ||| the head of ||| 0.200000 0.200000 0.600000 0.200000 0.200000 0.600000 
" . ||| the head ||| 0.200000 0.200000 0.600000 0.200000 0.200000 0.600000 
" . ||| the headquarters for a ||| 0.200000 0.200000 0.600000 0.200000 0.600000 0.200000 
" . ||| the headquarters for ||| 0.200000 0.200000 0.600000 0.200000 0.200000 0.600000 
" . ||| the headquarters ||| 0.200000 0.200000 0.600000 0.200000 0.200000 0.600000 
" . ||| the inside of Israel ||| 0.200000 0.200000 0.600000 0.200000 0.200000 0.600000 
" . ||| the inside of ||| 0.200000 0.200000 0.600000 0.200000 0.200000 0.600000 
" . ||| the inside ||| 0.200000 0.200000 0.600000 0.200000 0.200000 0.600000 
" . ||| the intrusion of ||| 0.200000 0.200000 0.600000 0.200000 0.200000 0.600000 
" . ||| the material and human ||| 0.600000 0.200000 0.200000 0.200000 0.200000 0.600000 
" . ||| the material and ||| 0.600000 0.200000 0.200000 0.200000 0.200000 0.600000 
" . ||| the material ||| 0.600000 0.200000 0.200000 0.200000 0.200000 0.600000 
" . ||| the matter." ||| 0.200000 0.200000 0.600000 0.600000 0.200000 0.200000 
" . ||| the movement of ||| 0.200000 0.200000 0.600000 0.200000 0.600000 0.200000 
" . ||| the movement ||| 0.200000 0.200000 0.600000 0.200000 0.200000 0.600000 
" . ||| the one ||| 0.200000 0.200000 0.600000 0.200000 0.200000 0.600000 
" . ||| the parliament in the person of ||| 0.200000 0.200000 0.600000 0.200000 0.200000 0.600000 
" . ||| the people of ||| 0.200000 0.200000 0.600000 0.200000 0.600000 0.200000 
" . ||| the person of ||| 0.200000 0.200000 0.600000 0.200000 0.200000 0.600000 
" . ||| the point ||| 0.200000 0.200000 0.600000 0.200000 0.200000 0.600000 
" . ||| the private sector." ||| 0.200000 0.200000 0.600000 0.600000 0.200000 0.200000 
" . ||| the problem ||| 0.200000 0.200000 0.600000 0.200000 0.600000 0.200000 
" . ||| the proof of ||| 0.200000 0.200000 0.600000 0.200000 0.200000 0.600000 
" . ||| the right to ||| 0.200000 0.200000 0.600000 0.200000 0.200000 0.600000 
" . ||| the right ||| 0.200000 0.200000 0.600000 0.200000 0.200000 0.600000 
" . ||| the safety of ||| 0.142857 0.142857 0.714286 0.142857 0.142857 0.714286 
" . ||| the safety ||| 0.142857 0.142857 0.714286 0.142857 0.142857 0.714286 
" . ||| the same ditch with ||| 0.200000 0.200000 0.600000 0.200000 0.200000 0.600000 
" . ||| the same ditch ||| 0.200000 0.200000 0.600000 0.200000 0.200000 0.600000 
" . ||| the same ||| 0.200000 0.200000 0.600000 0.200000 0.200000 0.600000 
" . ||| the saying that ||| 0.600000 0.200000 0.200000 0.200000 0.200000 0.600000 
" . ||| the security of ||| 0.200000 0.200000 0.600000 0.200000 0.600000 0.200000 
" . ||| the security ||| 0.200000 0.200000 0.600000 0.200000 0.200000 0.600000 
" . ||| the solidarity ||| 0.200000 0.200000 0.600000 0.200000 0.600000 0.200000 
" . ||| the state." ||| 0.200000 0.200000 0.600000 0.600000 0.200000 0.200000 
" . ||| the summit ||| 0.200000 0.200000 0.600000 0.200000 0.200000 0.600000 
" . ||| the target and the ||| 0.200000 0.200000 0.600000 0.200000 0.600000 0.200000 
" . ||| the target and ||| 0.200000 0.200000 0.600000 0.200000 0.200000 0.600000 
" . ||| the works to transform the ||| 0.200000 0.200000 0.600000 0.200000 0.600000 0.200000 
" . ||| the worst for the ||| 0.200000 0.200000 0.600000 0.200000 0.200000 0.600000 
" . ||| the worst for ||| 0.200000 0.200000 0.600000 0.200000 0.200000 0.600000 
" . ||| the worst ||| 0.200000 0.200000 0.600000 0.200000 0.200000 0.600000 
" . ||| the ||| 0.031390 0.004484 0.964126 0.004484 0.246637 0.748879 
" . ||| their own freedom and the safety of ||| 0.200000 0.200000 0.600000 0.200000 0.200000 0.600000 
" . ||| their own freedom and the safety ||| 0.200000 0.200000 0.600000 0.200000 0.200000 0.600000 
" . ||| their own freedom and the ||| 0.200000 0.200000 0.600000 0.200000 0.200000 0.600000 
" . ||| their work." ||| 0.200000 0.200000 0.600000 0.600000 0.200000 0.200000 
" . ||| them more." ||| 0.200000 0.200000 0.600000 0.600000 0.200000 0.200000 
" . ||| them to start their work." ||| 0.200000 0.200000 0.600000 0.600000 0.200000 0.200000 
" . ||| them. This is ||| 0.200000 0.200000 0.600000 0.200000 0.200000 0.600000 
" . ||| them." ||| 0.200000 0.200000 0.600000 0.600000 0.200000 0.200000 
" . ||| there and ||| 0.200000 0.200000 0.600000 0.200000 0.600000 0.200000 
" . ||| these orders. ||| 0.200000 0.200000 0.600000 0.600000 0.200000 0.200000 
" . ||| they did not handle the ||| 0.200000 0.200000 0.600000 0.200000 0.200000 0.600000 
" . ||| those of the ||| 0.200000 0.200000 0.600000 0.200000 0.200000 0.600000 
" . ||| those of ||| 0.200000 0.200000 0.600000 0.200000 0.200000 0.600000 
" . ||| threatens Iranian society and the ||| 0.200000 0.200000 0.600000 0.200000 0.200000 0.600000 
" . ||| threatens Iranian society and ||| 0.200000 0.200000 0.600000 0.200000 0.200000 0.600000 
" . ||| time to arrange the summit ||| 0.200000 0.200000 0.600000 0.200000 0.200000 0.600000 
" . ||| time to arrange the ||| 0.200000 0.200000 0.600000 0.200000 0.200000 0.600000 
" . ||| time." ||| 0.200000 0.200000 0.600000 0.600000 0.200000 0.200000 
" . ||| to announce a state of emergency according ||| 0.200000 0.200000 0.600000 0.200000 0.200000 0.600000 
" . ||| to announce a state of emergency ||| 0.200000 0.200000 0.600000 0.200000 0.200000 0.600000 
" . ||| to announce a state of ||| 0.200000 0.200000 0.600000 0.200000 0.200000 0.600000 
" . ||| to announce a state ||| 0.200000 0.200000 0.600000 0.200000 0.200000 0.600000 
" . ||| to announce a ||| 0.200000 0.200000 0.600000 0.200000 0.200000 0.600000 
" . ||| to announce ||| 0.200000 0.200000 0.600000 0.200000 0.200000 0.600000 
" . ||| to arrange the summit ||| 0.200000 0.200000 0.600000 0.200000 0.200000 0.600000 
" . ||| to arrange the ||| 0.200000 0.200000 0.600000 0.200000 0.200000 0.600000 
" . ||| to be called off while the ||| 0.200000 0.200000 0.600000 0.200000 0.200000 0.600000 
" . ||| to be called off while ||| 0.200000 0.200000 0.600000 0.200000 0.200000 0.600000 
" . ||| to be called off ||| 0.200000 0.200000 0.600000 0.200000 0.200000 0.600000 
" . ||| to be called ||| 0.200000 0.200000 0.600000 0.200000 0.200000 0.600000 
" . ||| to be exposed to ||| 0.200000 0.200000 0.600000 0.200000 0.200000 0.600000 
" . ||| to be known ||| 0.200000 0.200000 0.600000 0.200000 0.600000 0.200000 
" . ||| to be ||| 0.142857 0.142857 0.714286 0.142857 0.142857 0.714286 
" . ||| to bring ||| 0.200000 0.200000 0.600000 0.200000 0.200000 0.600000 
" . ||| to ensure rapid deployment of ||| 0.200000 0.200000 0.600000 0.200000 0.600000 0.200000 
" . ||| to ensure the ||| 0.200000 0.200000 0.600000 0.200000 0.600000 0.200000 
" . ||| to expect ||| 0.200000 0.200000 0.600000 0.200000 0.200000 0.600000 
" . ||| to it." ||| 0.200000 0.200000 0.600000 0.600000 0.200000 0.200000 
" . ||| to meet the challenges of the ||| 0.200000 0.200000 0.600000 0.200000 0.600000 0.200000 
" . ||| to meet the challenges of ||| 0.200000 0.200000 0.600000 0.200000 0.200000 0.600000 
" . ||| to meet the challenges ||| 0.200000 0.200000 0.600000 0.200000 0.200000 0.600000 
" . ||| to meet the ||| 0.200000 0.200000 0.600000 0.200000 0.200000 0.600000 
" . ||| to start their work." ||| 0.200000 0.200000 0.600000 0.600000 0.200000 0.200000 
" . ||| to stop the works to transform the ||| 0.200000 0.200000 0.600000 0.200000 0.600000 0.200000 
" . ||| to the elongation of ||| 0.200000 0.200000 0.600000 0.200000 0.200000 0.600000 
" . ||| to the elongation ||| 0.200000 0.200000 0.600000 0.200000 0.200000 0.600000 
" . ||| to the lies of the ||| 0.200000 0.200000 0.600000 0.200000 0.200000 0.600000 
" . ||| to the lies of ||| 0.200000 0.200000 0.600000 0.200000 0.200000 0.600000 
" . ||| to the lies ||| 0.200000 0.200000 0.600000 0.200000 0.200000 0.600000 
" . ||| to the state." ||| 0.200000 0.200000 0.600000 0.600000 0.200000 0.200000 
" . ||| to the world of ||| 0.200000 0.200000 0.600000 0.200000 0.200000 0.600000 
" . ||| to the world ||| 0.200000 0.200000 0.600000 0.200000 0.200000 0.600000 
" . ||| to the ||| 0.037037 0.037037 0.925926 0.037037 0.111111 0.851852 
" . ||| to transform the ||| 0.200000 0.200000 0.600000 0.200000 0.600000 0.200000 
" . ||| to which the ||| 0.200000 0.200000 0.600000 0.200000 0.600000 0.200000 
" . ||| to which ||| 0.200000 0.200000 0.600000 0.200000 0.200000 0.600000 
" . ||| to win the ||| 0.200000 0.200000 0.600000 0.200000 0.200000 0.600000 
" . ||| to win ||| 0.200000 0.200000 0.600000 0.200000 0.200000 0.600000 
" . ||| to ||| 0.058824 0.019608 0.921569 0.019608 0.058824 0.921569 
" . ||| took place." ||| 0.600000 0.200000 0.200000 0.600000 0.200000 0.200000 
" . ||| transform the ||| 0.200000 0.200000 0.600000 0.200000 0.600000 0.200000 
" . ||| treatment of ||| 0.200000 0.200000 0.600000 0.200000 0.200000 0.600000 
" . ||| understanding and agreement with the ||| 0.200000 0.200000 0.600000 0.200000 0.600000 0.200000 
" . ||| units" carried out these orders. ||| 0.200000 0.200000 0.600000 0.600000 0.200000 0.200000 
" . ||| up the elements of our ||| 0.600000 0.200000 0.200000 0.200000 0.200000 0.600000 
" . ||| up the elements of ||| 0.600000 0.200000 0.200000 0.200000 0.200000 0.600000 
" . ||| up to ||| 0.200000 0.200000 0.600000 0.200000 0.600000 0.200000 
" . ||| up ||| 0.200000 0.200000 0.600000 0.200000 0.200000 0.600000 
" . ||| us to ||| 0.200000 0.200000 0.600000 0.200000 0.200000 0.600000 
" . ||| use the ||| 0.200000 0.200000 0.600000 0.200000 0.200000 0.600000 
" . ||| using the ||| 0.200000 0.200000 0.600000 0.200000 0.200000 0.600000 
" . ||| valid from the date of ||| 0.200000 0.200000 0.600000 0.200000 0.600000 0.200000 
" . ||| very important for the Palestinians because it ||| 0.200000 0.200000 0.600000 0.200000 0.200000 0.600000 
" . ||| very important for the Palestinians because ||| 0.200000 0.200000 0.600000 0.200000 0.200000 0.600000 
" . ||| very important for the Palestinians ||| 0.200000 0.200000 0.600000 0.200000 0.200000 0.600000 
" . ||| very important for the ||| 0.200000 0.200000 0.600000 0.200000 0.200000 0.600000 
" . ||| war." ||| 0.200000 0.200000 0.600000 0.600000 0.200000 0.200000 
" . ||| was "at ||| 0.200000 0.200000 0.600000 0.200000 0.600000 0.200000 
" . ||| was boycotted by the people of ||| 0.200000 0.200000 0.600000 0.200000 0.600000 0.200000 
" . ||| were, for example, similar to ||| 0.200000 0.200000 0.600000 0.200000 0.200000 0.600000 
" . ||| what has come to be known ||| 0.200000 0.200000 0.600000 0.200000 0.600000 0.200000 
" . ||| what has come to be ||| 0.200000 0.200000 0.600000 0.200000 0.200000 0.600000 
" . ||| what has come to ||| 0.200000 0.200000 0.600000 0.200000 0.200000 0.600000 
" . ||| which were, for example, similar to ||| 0.200000 0.200000 0.600000 0.200000 0.200000 0.600000 
" . ||| will also come to the ||| 0.200000 0.200000 0.600000 0.200000 0.200000 0.600000 
" . ||| will also come to ||| 0.200000 0.200000 0.600000 0.200000 0.200000 0.600000 
" . ||| will be happy with." ||| 0.600000 0.200000 0.200000 0.600000 0.200000 0.200000 
" . ||| will be happy ||| 0.600000 0.200000 0.200000 0.200000 0.200000 0.600000 
" . ||| will cooperate with us to ||| 0.200000 0.200000 0.600000 0.200000 0.200000 0.600000 
" . ||| will get ||| 0.200000 0.200000 0.600000 0.200000 0.200000 0.600000 
" . ||| with the ||| 0.111111 0.111111 0.777778 0.111111 0.777778 0.111111 
" . ||| with us to ||| 0.200000 0.200000 0.600000 0.200000 0.200000 0.600000 
" . ||| work to ensure the ||| 0.200000 0.200000 0.600000 0.200000 0.600000 0.200000 
" . ||| work." ||| 0.200000 0.200000 0.600000 0.600000 0.200000 0.200000 
" . ||| works to transform the ||| 0.200000 0.200000 0.600000 0.200000 0.600000 0.200000 
" . ||| would have loved them more." ||| 0.200000 0.200000 0.600000 0.600000 0.200000 0.200000 
" . ||| years with the ||| 0.200000 0.200000 0.600000 0.200000 0.600000 0.200000 
" On Alhdf mn ||| "The purpose of this ||| 0.600000 0.200000 0.200000 0.600000 0.200000 0.200000 
" On Alhdf mn ||| "The purpose of ||| 0.600000 0.200000 0.200000 0.200000 0.200000 0.600000 
" On Alhdf ||| "The purpose ||| 0.600000 0.200000 0.200000 0.600000 0.200000 0.200000 
" On ||| "A ||| 0.200000 0.200000 0.600000 0.600000 0.200000 0.200000 
" On ||| "Any ||| 0.200000 0.200000 0.600000 0.200000 0.200000 0.600000 
" On ||| "The conditions of ||| 0.200000 0.200000 0.600000 0.200000 0.200000 0.600000 
" On ||| "The conditions ||| 0.200000 0.200000 0.600000 0.200000 0.200000 0.600000 
" On ||| "The immediate ||| 0.600000 0.200000 0.200000 0.600000 0.200000 0.200000 
" On ||| "The ||| 0.384615 0.076923 0.538462 0.538462 0.025641 0.435897 
" On ||| "that the whole ||| 0.600000 0.200000 0.200000 0.600000 0.200000 0.200000 
" On ||| "that the ||| 0.333333 0.111111 0.555556 0.333333 0.111111 0.555556 
" On ||| "that ||| 0.600000 0.066667 0.333333 0.333333 0.066667 0.600000 
" On ||| "the ||| 0.538462 0.230769 0.230769 0.538462 0.076923 0.384615 
" On ||| "this sort of thing happens ||| 0.600000 0.200000 0.200000 0.200000 0.200000 0.600000 
" On ||| "this sort of thing ||| 0.600000 0.200000 0.200000 0.200000 0.200000 0.600000 
" On ||| "this sort of ||| 0.600000 0.200000 0.200000 0.200000 0.200000 0.600000 
" On ||| "this sort ||| 0.600000 0.200000 0.200000 0.200000 0.200000 0.600000 
" On ||| "this ||| 0.600000 0.200000 0.200000 0.200000 0.200000 0.600000 
" On ||| China, ||| 0.200000 0.200000 0.600000 0.600000 0.200000 0.200000 
" On ||| He agrees with him, yet considers that ||| 0.200000 0.200000 0.600000 0.600000 0.200000 0.200000 
" On ||| Resistance" block said it considered the ||| 0.200000 0.200000 0.600000 0.200000 0.200000 0.600000 
" On ||| Some of the demonstrators say, "A ||| 0.200000 0.200000 0.600000 0.600000 0.200000 0.200000 
" On ||| a huge contribution that ||| 0.200000 0.200000 0.600000 0.200000 0.200000 0.600000 
" On ||| achievement and a huge contribution that ||| 0.200000 0.200000 0.600000 0.200000 0.200000 0.600000 
" On ||| added, "The ||| 0.600000 0.200000 0.200000 0.600000 0.200000 0.200000 
" On ||| afraid that "there are ||| 0.200000 0.200000 0.600000 0.200000 0.200000 0.600000 
" On ||| afraid that "there ||| 0.200000 0.200000 0.600000 0.200000 0.200000 0.600000 
" On ||| against China, ||| 0.200000 0.200000 0.600000 0.600000 0.200000 0.200000 
" On ||| also said that the ||| 0.200000 0.200000 0.600000 0.200000 0.200000 0.600000 
" On ||| also said that ||| 0.200000 0.200000 0.600000 0.200000 0.200000 0.600000 
" On ||| and a huge contribution that ||| 0.200000 0.200000 0.600000 0.200000 0.200000 0.600000 
" On ||| announced that ||| 0.600000 0.200000 0.200000 0.200000 0.200000 0.600000 
" On ||| as saying that ||| 0.200000 0.200000 0.600000 0.600000 0.200000 0.200000 
" On ||| be published ||| 0.200000 0.200000 0.600000 0.200000 0.200000 0.600000 
" On ||| block said it considered the ||| 0.200000 0.200000 0.600000 0.200000 0.200000 0.600000 
" On ||| capital, that ||| 0.600000 0.200000 0.200000 0.600000 0.200000 0.200000 
" On ||| confirmed that ||| 0.600000 0.200000 0.200000 0.600000 0.200000 0.200000 
" On ||| contended "that the ||| 0.600000 0.200000 0.200000 0.600000 0.200000 0.200000 
" On ||| contended "that ||| 0.600000 0.200000 0.200000 0.200000 0.200000 0.600000 
" On ||| contended that ||| 0.600000 0.200000 0.200000 0.200000 0.200000 0.600000 
" On ||| continued to say that the ||| 0.200000 0.200000 0.600000 0.200000 0.200000 0.600000 
" On ||| continued to say that ||| 0.200000 0.200000 0.600000 0.200000 0.200000 0.600000 
" On ||| contribution that ||| 0.200000 0.200000 0.600000 0.200000 0.200000 0.600000 
" On ||| demonstrators say, "A ||| 0.200000 0.200000 0.600000 0.600000 0.200000 0.200000 
" On ||| emphasizing that ||| 0.200000 0.200000 0.600000 0.600000 0.200000 0.200000 
" On ||| explained, ||| 0.600000 0.200000 0.200000 0.200000 0.200000 0.600000 
" On ||| fact that "the ||| 0.200000 0.200000 0.600000 0.600000 0.200000 0.200000 
" On ||| further said "the ||| 0.600000 0.200000 0.200000 0.600000 0.200000 0.200000 
" On ||| huge contribution that ||| 0.200000 0.200000 0.600000 0.200000 0.200000 0.600000 
" On ||| its performance against China, ||| 0.200000 0.200000 0.600000 0.600000 0.200000 0.200000 
" On ||| members, while emphasizing that ||| 0.600000 0.200000 0.200000 0.600000 0.200000 0.200000 
" On ||| minister continued to say that the ||| 0.200000 0.200000 0.600000 0.200000 0.200000 0.600000 
" On ||| minister continued to say that ||| 0.200000 0.200000 0.600000 0.200000 0.200000 0.600000 
" On ||| network showed that ||| 0.200000 0.200000 0.600000 0.600000 0.200000 0.200000 
" On ||| newspapers said ||| 0.600000 0.200000 0.200000 0.200000 0.200000 0.600000 
" On ||| of the demonstrators say, "A ||| 0.200000 0.200000 0.600000 0.600000 0.200000 0.200000 
" On ||| out that a ||| 0.200000 0.200000 0.600000 0.200000 0.200000 0.600000 
" On ||| out that ||| 0.428571 0.142857 0.428571 0.142857 0.142857 0.714286 
" On ||| performance against China, ||| 0.200000 0.200000 0.600000 0.600000 0.200000 0.200000 
" On ||| phone that ||| 0.200000 0.200000 0.600000 0.600000 0.200000 0.200000 
" On ||| pointed that ||| 0.200000 0.200000 0.600000 0.200000 0.600000 0.200000 
" On ||| pointing out that a ||| 0.200000 0.200000 0.600000 0.200000 0.200000 0.600000 
" On ||| pointing out that ||| 0.200000 0.200000 0.600000 0.200000 0.200000 0.600000 
" On ||| reported that the ||| 0.600000 0.200000 0.200000 0.600000 0.200000 0.200000 
" On ||| reported that ||| 0.600000 0.200000 0.200000 0.200000 0.200000 0.600000 
" On ||| said "the ||| 0.428571 0.142857 0.428571 0.714286 0.142857 0.142857 
" On ||| said it considered the ||| 0.200000 0.200000 0.600000 0.200000 0.200000 0.600000 
" On ||| said it was ||| 0.200000 0.200000 0.600000 0.600000 0.200000 0.200000 
" On ||| said it ||| 0.200000 0.200000 0.600000 0.200000 0.200000 0.600000 
" On ||| said that the ||| 0.200000 0.200000 0.600000 0.200000 0.200000 0.600000 
" On ||| said that ||| 0.428571 0.142857 0.428571 0.428571 0.142857 0.428571 
" On ||| said ||| 0.142857 0.142857 0.714286 0.142857 0.142857 0.714286 
" On ||| said, "The ||| 0.200000 0.200000 0.600000 0.600000 0.200000 0.200000 
" On ||| say, "A ||| 0.200000 0.200000 0.600000 0.600000 0.200000 0.200000 
" On ||| saying that ||| 0.200000 0.200000 0.600000 0.600000 0.200000 0.200000 
" On ||| stated, "The ||| 0.142857 0.142857 0.714286 0.142857 0.142857 0.714286 
" On ||| stated, ||| 0.200000 0.200000 0.600000 0.200000 0.200000 0.600000 
" On ||| statement that there was ||| 0.200000 0.200000 0.600000 0.200000 0.200000 0.600000 
" On ||| statement that there ||| 0.200000 0.200000 0.600000 0.200000 0.200000 0.600000 
" On ||| statement that ||| 0.200000 0.200000 0.600000 0.200000 0.200000 0.600000 
" On ||| that "the ||| 0.411765 0.176471 0.411765 0.529412 0.058824 0.411765 
" On ||| that "there are ||| 0.200000 0.200000 0.600000 0.200000 0.200000 0.600000 
" On ||| that "there ||| 0.428571 0.142857 0.428571 0.428571 0.142857 0.428571 
" On ||| that a ||| 0.200000 0.200000 0.600000 0.200000 0.200000 0.600000 
" On ||| that inhuman acts ||| 0.200000 0.200000 0.600000 0.200000 0.200000 0.600000 
" On ||| that inhuman ||| 0.200000 0.200000 0.600000 0.200000 0.200000 0.600000 
" On ||| that that the ||| 0.600000 0.200000 0.200000 0.200000 0.200000 0.600000 
" On ||| that that ||| 0.600000 0.200000 0.200000 0.200000 0.200000 0.600000 
" On ||| that the ||| 0.272727 0.272727 0.454545 0.454545 0.090909 0.454545 
" On ||| that there was ||| 0.200000 0.200000 0.600000 0.200000 0.200000 0.600000 
" On ||| that there ||| 0.200000 0.200000 0.600000 0.200000 0.200000 0.600000 
" On ||| that ||| 0.261538 0.107692 0.630769 0.353846 0.076923 0.569231 
" On ||| the Resistance" block said it considered the ||| 0.600000 0.200000 0.200000 0.200000 0.200000 0.600000 
" On ||| the demonstrators say, "A ||| 0.200000 0.200000 0.600000 0.600000 0.200000 0.200000 
" On ||| the fact that "the ||| 0.600000 0.200000 0.200000 0.600000 0.200000 0.200000 
" On ||| the minister continued to say that the ||| 0.200000 0.200000 0.600000 0.200000 0.200000 0.600000 
" On ||| the minister continued to say that ||| 0.200000 0.200000 0.600000 0.200000 0.200000 0.600000 
" On ||| the ||| 0.200000 0.200000 0.600000 0.200000 0.200000 0.600000 
" On ||| to say that the ||| 0.200000 0.200000 0.600000 0.200000 0.200000 0.600000 
" On ||| to say that ||| 0.200000 0.200000 0.600000 0.200000 0.200000 0.600000 
" On ||| view that "the ||| 0.600000 0.200000 0.200000 0.600000 0.200000 0.200000 
" On ||| was afraid that "there are ||| 0.200000 0.200000 0.600000 0.200000 0.200000 0.600000 
" On ||| was afraid that "there ||| 0.200000 0.200000 0.600000 0.200000 0.200000 0.600000 
" On ||| while emphasizing that ||| 0.200000 0.200000 0.600000 0.600000 0.200000 0.200000 
" bsbb ||| because of the ||| 0.600000 0.200000 0.200000 0.600000 0.200000 0.200000 
" bsbb ||| because ||| 0.200000 0.600000 0.200000 0.200000 0.200000 0.600000 
" hVA ||| "This man ||| 0.600000 0.200000 0.200000 0.200000 0.200000 0.600000 
" hVA ||| "This resolution ||| 0.600000 0.200000 0.200000 0.200000 0.200000 0.600000 
" hVA ||| "This ||| 0.733333 0.066667 0.200000 0.600000 0.066667 0.333333 
" hVA ||| "for the world, this ||| 0.200000 0.200000 0.600000 0.600000 0.200000 0.200000 
" hVA ||| "such ||| 0.600000 0.200000 0.200000 0.600000 0.200000 0.200000 
" hVA ||| "this ||| 0.200000 0.200000 0.600000 0.600000 0.200000 0.200000 
" hVA ||| Agency that "this is mere slander and ||| 0.200000 0.200000 0.600000 0.200000 0.200000 0.600000 
" hVA ||| Agency that "this is mere slander ||| 0.200000 0.200000 0.600000 0.200000 0.200000 0.600000 
" hVA ||| Agency that "this is mere ||| 0.200000 0.200000 0.600000 0.200000 0.200000 0.600000 
" hVA ||| Agency that "this is ||| 0.200000 0.200000 0.600000 0.200000 0.200000 0.600000 
" hVA ||| Agency that "this ||| 0.200000 0.200000 0.600000 0.200000 0.200000 0.600000 
" hVA ||| News Agency that "this is mere slander ||| 0.600000 0.200000 0.200000 0.200000 0.200000 0.600000 
" hVA ||| News Agency that "this is mere ||| 0.600000 0.200000 0.200000 0.200000 0.200000 0.600000 
" hVA ||| News Agency that "this is ||| 0.600000 0.200000 0.200000 0.200000 0.200000 0.600000 
" hVA ||| News Agency that "this ||| 0.600000 0.200000 0.200000 0.200000 0.200000 0.600000 
" hVA ||| continued, "for the world, this ||| 0.600000 0.200000 0.200000 0.600000 0.200000 0.200000 
" hVA ||| identity, saying "this ||| 0.200000 0.200000 0.600000 0.600000 0.200000 0.200000 
" hVA ||| saying "this ||| 0.200000 0.200000 0.600000 0.600000 0.200000 0.200000 
" hVA ||| that "this is mere slander and ||| 0.200000 0.200000 0.600000 0.200000 0.200000 0.600000 
" hVA ||| that "this is mere slander ||| 0.200000 0.200000 0.600000 0.200000 0.200000 0.600000 
" hVA ||| that "this is mere ||| 0.200000 0.200000 0.600000 0.200000 0.200000 0.600000 
" hVA ||| that "this is ||| 0.200000 0.200000 0.600000 0.200000 0.200000 0.600000 
" hVA ||| that "this ||| 0.200000 0.200000 0.600000 0.200000 0.200000 0.600000 
" mDyfA ||| "his name is ||| 0.200000 0.200000 0.600000 0.200000 0.200000 0.600000 
" mDyfA ||| "his name ||| 0.200000 0.200000 0.600000 0.200000 0.200000 0.600000 
" mDyfA ||| "his ||| 0.200000 0.200000 0.600000 0.200000 0.200000 0.600000 
" mDyfA ||| added "his name is ||| 0.200000 0.200000 0.600000 0.200000 0.200000 0.600000 
" mDyfA ||| added "his name ||| 0.200000 0.200000 0.600000 0.200000 0.200000 0.600000 
" mDyfA ||| added "his ||| 0.200000 0.200000 0.600000 0.200000 0.200000 0.600000 
" mDyfA ||| and added "his name is ||| 0.200000 0.200000 0.600000 0.200000 0.200000 0.600000 
" mDyfA ||| and added "his name ||| 0.200000 0.200000 0.600000 0.200000 0.200000 0.600000 
" mDyfA ||| and added "his ||| 0.200000 0.200000 0.600000 0.200000 0.200000 0.600000 
" mn ||| "From ||| 0.600000 0.200000 0.200000 0.200000 0.200000 0.600000 
" mn ||| "It ||| 0.555556 0.111111 0.333333 0.555556 0.111111 0.333333 
" mn ||| "it is ||| 0.600000 0.200000 0.200000 0.600000 0.200000 0.200000 
" mn ||| "it ||| 0.600000 0.200000 0.200000 0.200000 0.200000 0.600000 
" mn ||| "the ||| 0.600000 0.200000 0.200000 0.200000 0.200000 0.600000 
" mn ||| Forces" from ||| 0.200000 0.200000 0.600000 0.600000 0.200000 0.200000 
" mn ||| also said, "It ||| 0.200000 0.200000 0.600000 0.200000 0.200000 0.600000 
" mn ||| and from ||| 0.600000 0.200000 0.200000 0.200000 0.200000 0.600000 
" mn ||| by ||| 0.200000 0.200000 0.600000 0.200000 0.200000 0.600000 
" mn ||| direction of ||| 0.200000 0.200000 0.600000 0.200000 0.200000 0.600000 
" mn ||| edition of ||| 0.200000 0.200000 0.600000 0.200000 0.200000 0.600000 
" mn ||| force" by ||| 0.200000 0.200000 0.600000 0.200000 0.200000 0.600000 
" mn ||| from a ||| 0.200000 0.200000 0.600000 0.600000 0.200000 0.200000 
" mn ||| from ||| 0.428571 0.142857 0.428571 0.714286 0.142857 0.142857 
" mn ||| of its ||| 0.200000 0.200000 0.600000 0.200000 0.200000 0.600000 
" mn ||| of the ||| 0.200000 0.200000 0.600000 0.200000 0.600000 0.200000 
" mn ||| of ||| 0.076923 0.076923 0.846154 0.230769 0.076923 0.692308 
" mn ||| order ||| 0.200000 0.600000 0.200000 0.200000 0.200000 0.600000 
" mn ||| passes by ||| 0.200000 0.200000 0.600000 0.200000 0.200000 0.600000 
" mn ||| perspective, ||| 0.200000 0.200000 0.600000 0.200000 0.200000 0.600000 
" mn ||| said, "It ||| 0.200000 0.200000 0.600000 0.200000 0.200000 0.600000 
" mn ||| say that policy was undertaken by ||| 0.200000 0.200000 0.600000 0.200000 0.200000 0.600000 
" mn ||| security perspective, ||| 0.200000 0.200000 0.600000 0.200000 0.200000 0.600000 
" mn ||| the passage of ||| 0.600000 0.200000 0.200000 0.600000 0.200000 0.200000 
" mn ||| the security perspective, ||| 0.200000 0.200000 0.600000 0.200000 0.200000 0.600000 
" mn ||| to say that policy was undertaken by ||| 0.200000 0.200000 0.600000 0.200000 0.200000 0.600000 
" mn ||| toward relations ||| 0.200000 0.200000 0.600000 0.200000 0.200000 0.600000 
" mn ||| toward ||| 0.200000 0.200000 0.600000 0.200000 0.200000 0.600000 
" mn ||| who passes by ||| 0.200000 0.600000 0.200000 0.200000 0.200000 0.600000 
" qbl ||| before ||| 0.142857 0.142857 0.714286 0.428571 0.142857 0.428571 
" qbl ||| corrupted, ultimately replacing a word ||| 0.200000 0.200000 0.600000 0.200000 0.200000 0.600000 
" qbl ||| corrupted, ultimately replacing a ||| 0.200000 0.200000 0.600000 0.200000 0.200000 0.600000 
" qbl ||| corrupted, ultimately replacing ||| 0.200000 0.200000 0.600000 0.200000 0.200000 0.600000 
" qbl ||| corrupted, ultimately ||| 0.200000 0.200000 0.600000 0.200000 0.200000 0.600000 
" qbl ||| corrupted, ||| 0.200000 0.200000 0.600000 0.200000 0.200000 0.600000 
" qbl ||| got corrupted, ultimately replacing a word ||| 0.200000 0.200000 0.600000 0.200000 0.200000 0.600000 
" qbl ||| got corrupted, ultimately replacing a ||| 0.200000 0.200000 0.600000 0.200000 0.200000 0.600000 
" qbl ||| got corrupted, ultimately replacing ||| 0.200000 0.200000 0.600000 0.200000 0.200000 0.600000 
" qbl ||| got corrupted, ultimately ||| 0.200000 0.200000 0.600000 0.200000 0.200000 0.600000 
" qbl ||| got corrupted, ||| 0.200000 0.200000 0.600000 0.200000 0.200000 0.600000 
" qrybA ||| poetic "me" ||| 0.200000 0.200000 0.600000 0.200000 0.200000 0.600000 
" qrybA ||| poetic ||| 0.200000 0.200000 0.600000 0.200000 0.200000 0.600000 
" qyAm ||| the establishment of ||| 0.200000 0.200000 0.600000 0.600000 0.200000 0.200000 
" ||| " It ||| 0.600000 0.200000 0.200000 0.600000 0.200000 0.200000 
" ||| " the ||| 0.200000 0.200000 0.600000 0.200000 0.200000 0.600000 
" ||| " ||| 0.555556 0.111111 0.333333 0.111111 0.111111 0.777778 
" ||| "A ||| 0.555556 0.111111 0.333333 0.333333 0.111111 0.555556 
" ||| "Al ||| 0.555556 0.111111 0.333333 0.555556 0.111111 0.333333 
" ||| "Al-Jamaa ||| 0.200000 0.200000 0.600000 0.200000 0.200000 0.600000 
" ||| "Al-Qarnat" ||| 0.200000 0.200000 0.600000 0.200000 0.600000 0.200000 
" ||| "American request to ||| 0.200000 0.200000 0.600000 0.200000 0.200000 0.600000 
" ||| "American request ||| 0.200000 0.200000 0.600000 0.200000 0.200000 0.600000 
" ||| "American ||| 0.454545 0.090909 0.454545 0.090909 0.090909 0.818182 
" ||| "An Article ||| 0.600000 0.200000 0.200000 0.200000 0.200000 0.600000 
" ||| "An Nahar" ||| 0.600000 0.200000 0.200000 0.200000 0.200000 0.600000 
" ||| "An ||| 0.555556 0.333333 0.111111 0.111111 0.111111 0.777778 
" ||| "Any ||| 0.200000 0.200000 0.600000 0.200000 0.200000 0.600000 
" ||| "Arab agreement ||| 0.200000 0.200000 0.600000 0.200000 0.200000 0.600000 
" ||| "Arab ||| 0.428571 0.142857 0.428571 0.142857 0.142857 0.714286 
" ||| "Arabs ||| 0.200000 0.200000 0.600000 0.200000 0.200000 0.600000 
" ||| "Article one: To be closed ||| 0.600000 0.200000 0.200000 0.200000 0.200000 0.600000 
" ||| "Article one: To be ||| 0.600000 0.200000 0.200000 0.200000 0.200000 0.600000 
" ||| "Article one: To ||| 0.600000 0.200000 0.200000 0.200000 0.200000 0.600000 
" ||| "Article one: ||| 0.600000 0.200000 0.200000 0.200000 0.200000 0.600000 
" ||| "Article ||| 0.600000 0.200000 0.200000 0.200000 0.200000 0.600000 
" ||| "As far as I am concerned, ||| 0.200000 0.200000 0.600000 0.200000 0.200000 0.600000 
" ||| "As far as I am ||| 0.200000 0.200000 0.600000 0.200000 0.200000 0.600000 
" ||| "As far as I ||| 0.200000 0.200000 0.600000 0.200000 0.200000 0.600000 
" ||| "As far as ||| 0.200000 0.200000 0.600000 0.200000 0.200000 0.600000 
" ||| "As far ||| 0.200000 0.200000 0.600000 0.200000 0.200000 0.600000 
" ||| "As ||| 0.200000 0.200000 0.600000 0.200000 0.200000 0.600000 
" ||| "Ash-Sharq ||| 0.600000 0.200000 0.200000 0.200000 0.200000 0.600000 
" ||| "At ||| 0.428571 0.142857 0.428571 0.428571 0.142857 0.428571 
" ||| "Block" in order to abolish the annexation ||| 0.142857 0.142857 0.714286 0.142857 0.142857 0.714286 
" ||| "Block" in order to abolish the ||| 0.142857 0.142857 0.714286 0.142857 0.142857 0.714286 
" ||| "Block" in order to abolish ||| 0.142857 0.142857 0.714286 0.142857 0.142857 0.714286 
" ||| "Boeing 72-7" plane given ||| 0.200000 0.200000 0.600000 0.200000 0.200000 0.600000 
" ||| "Boeing 72-7" plane ||| 0.200000 0.200000 0.600000 0.200000 0.200000 0.600000 
" ||| "Boeing 72-7" ||| 0.200000 0.200000 0.600000 0.200000 0.200000 0.600000 
" ||| "Boeing ||| 0.200000 0.200000 0.600000 0.200000 0.200000 0.600000 
" ||| "But it is ||| 0.200000 0.200000 0.600000 0.200000 0.200000 0.600000 
" ||| "But it ||| 0.200000 0.200000 0.600000 0.200000 0.200000 0.600000 
" ||| "But ||| 0.428571 0.142857 0.428571 0.428571 0.142857 0.428571 
" ||| "Communication ||| 0.200000 0.200000 0.600000 0.200000 0.200000 0.600000 
" ||| "Contemporary ||| 0.714286 0.142857 0.142857 0.714286 0.142857 0.142857 
" ||| "Dar Beirut" ||| 0.200000 0.200000 0.600000 0.200000 0.200000 0.600000 
" ||| "Democratic ||| 0.200000 0.200000 0.600000 0.200000 0.200000 0.600000 
" ||| "Dialogue" ||| 0.600000 0.200000 0.200000 0.200000 0.200000 0.600000 
" ||| "Disarm ||| 0.600000 0.200000 0.200000 0.200000 0.200000 0.600000 
" ||| "Euro" ||| 0.200000 0.200000 0.600000 0.200000 0.200000 0.600000 
" ||| "Exports of Our Lebanese Industry Improve Trade ||| 0.600000 0.200000 0.200000 0.200000 0.200000 0.600000 
" ||| "Exports of Our Lebanese Industry Improve ||| 0.600000 0.200000 0.200000 0.200000 0.200000 0.600000 
" ||| "Exports of Our Lebanese Industry ||| 0.600000 0.200000 0.200000 0.200000 0.200000 0.600000 
" ||| "Exports of Our Lebanese ||| 0.600000 0.200000 0.200000 0.200000 0.200000 0.600000 
" ||| "Exports of Our ||| 0.600000 0.200000 0.200000 0.200000 0.200000 0.600000 
" ||| "Exports of ||| 0.600000 0.200000 0.200000 0.200000 0.200000 0.600000 
" ||| "Exports ||| 0.600000 0.200000 0.200000 0.200000 0.200000 0.600000 
" ||| "Extremely ||| 0.600000 0.200000 0.200000 0.600000 0.200000 0.200000 
" ||| "FIFA ||| 0.600000 0.200000 0.200000 0.600000 0.200000 0.200000 
" ||| "Fatah" ||| 0.600000 0.200000 0.200000 0.200000 0.200000 0.600000 
" ||| "Following the closure ||| 0.200000 0.200000 0.600000 0.200000 0.200000 0.600000 
" ||| "Following the ||| 0.200000 0.200000 0.600000 0.200000 0.200000 0.600000 
" ||| "Following ||| 0.200000 0.200000 0.600000 0.200000 0.200000 0.600000 
" ||| "For some ||| 0.200000 0.200000 0.600000 0.600000 0.200000 0.200000 
" ||| "For ||| 0.111111 0.333333 0.555556 0.111111 0.111111 0.777778 
" ||| "From ||| 0.600000 0.200000 0.200000 0.200000 0.200000 0.600000 
" ||| "God, Lebanon and Aun - ||| 0.200000 0.200000 0.600000 0.600000 0.200000 0.200000 
" ||| "God, Lebanon and Aun ||| 0.200000 0.200000 0.600000 0.200000 0.200000 0.600000 
" ||| "God, Lebanon and ||| 0.200000 0.200000 0.600000 0.200000 0.200000 0.600000 
" ||| "God, Lebanon ||| 0.200000 0.200000 0.600000 0.200000 0.200000 0.600000 
" ||| "God, ||| 0.200000 0.200000 0.600000 0.200000 0.200000 0.600000 
" ||| "Hamas" and ||| 0.200000 0.200000 0.600000 0.200000 0.200000 0.600000 
" ||| "Hamas" declared ||| 0.200000 0.200000 0.600000 0.200000 0.200000 0.600000 
" ||| "Hamas" ||| 0.111111 0.111111 0.777778 0.111111 0.111111 0.777778 
" ||| "Hizbollah" ||| 0.200000 0.200000 0.600000 0.200000 0.600000 0.200000 
" ||| "Hizbollah", ||| 0.428571 0.142857 0.428571 0.142857 0.142857 0.714286 
" ||| "Hizbullah" and ||| 0.600000 0.200000 0.200000 0.200000 0.200000 0.600000 
" ||| "Hizbullah" as ||| 0.200000 0.200000 0.600000 0.200000 0.200000 0.600000 
" ||| "Hizbullah" ||| 0.428571 0.142857 0.428571 0.142857 0.142857 0.714286 
" ||| "How did ||| 0.200000 0.200000 0.600000 0.200000 0.200000 0.600000 
" ||| "How ||| 0.200000 0.200000 0.600000 0.200000 0.200000 0.600000 
" ||| "I am concerned about ||| 0.600000 0.200000 0.200000 0.200000 0.200000 0.600000 
" ||| "I am concerned ||| 0.600000 0.200000 0.200000 0.200000 0.200000 0.600000 
" ||| "I am full of ||| 0.600000 0.200000 0.200000 0.200000 0.200000 0.600000 
" ||| "I am full ||| 0.600000 0.200000 0.200000 0.200000 0.200000 0.600000 
" ||| "I am happy to ||| 0.200000 0.200000 0.600000 0.200000 0.200000 0.600000 
" ||| "I am happy ||| 0.200000 0.200000 0.600000 0.200000 0.200000 0.600000 
" ||| "I am ||| 0.555556 0.111111 0.333333 0.111111 0.111111 0.777778 
" ||| "I assured his ||| 0.200000 0.200000 0.600000 0.600000 0.200000 0.200000 
" ||| "I assured ||| 0.200000 0.200000 0.600000 0.200000 0.200000 0.600000 
" ||| "I do not ||| 0.200000 0.200000 0.600000 0.200000 0.200000 0.600000 
" ||| "I do ||| 0.200000 0.200000 0.600000 0.200000 0.200000 0.600000 
" ||| "I followed ||| 0.600000 0.200000 0.200000 0.600000 0.200000 0.200000 
" ||| "I have no ||| 0.200000 0.200000 0.600000 0.200000 0.200000 0.600000 
" ||| "I have ||| 0.428571 0.142857 0.428571 0.428571 0.142857 0.428571 
" ||| "I think we all know ||| 0.200000 0.200000 0.600000 0.200000 0.200000 0.600000 
" ||| "I think we all ||| 0.200000 0.200000 0.600000 0.200000 0.200000 0.600000 
" ||| "I think we ||| 0.200000 0.200000 0.600000 0.200000 0.200000 0.600000 
" ||| "I think ||| 0.200000 0.200000 0.600000 0.200000 0.200000 0.600000 
" ||| "I used all the time given in ||| 0.200000 0.200000 0.600000 0.200000 0.200000 0.600000 
" ||| "I used all the time given ||| 0.200000 0.200000 0.600000 0.200000 0.200000 0.600000 
" ||| "I used all the time ||| 0.200000 0.200000 0.600000 0.200000 0.200000 0.600000 
" ||| "I used all the ||| 0.200000 0.200000 0.600000 0.200000 0.200000 0.600000 
" ||| "I used all ||| 0.200000 0.200000 0.600000 0.200000 0.200000 0.600000 
" ||| "I used ||| 0.200000 0.200000 0.600000 0.200000 0.200000 0.600000 
" ||| "I wish ||| 0.200000 0.200000 0.600000 0.600000 0.200000 0.200000 
" ||| "I ||| 0.728395 0.012346 0.259259 0.580247 0.012346 0.407407 
" ||| "In order ||| 0.200000 0.200000 0.600000 0.600000 0.200000 0.200000 
" ||| "In the ||| 0.600000 0.200000 0.200000 0.200000 0.200000 0.600000 
" ||| "In ||| 0.523810 0.047619 0.428571 0.523810 0.047619 0.428571 
" ||| "Information Technology in the Service ||| 0.200000 0.200000 0.600000 0.200000 0.200000 0.600000 
" ||| "Information Technology in the ||| 0.200000 0.200000 0.600000 0.200000 0.200000 0.600000 
" ||| "Information Technology in ||| 0.200000 0.200000 0.600000 0.200000 0.200000 0.600000 
" ||| "Information Technology ||| 0.200000 0.200000 0.600000 0.200000 0.200000 0.600000 
" ||| "Information technology ||| 0.600000 0.200000 0.200000 0.600000 0.200000 0.200000 
" ||| "Information ||| 0.428571 0.142857 0.428571 0.142857 0.142857 0.714286 
" ||| "Iran ||| 0.600000 0.200000 0.200000 0.200000 0.200000 0.600000 
" ||| "Islamic ||| 0.200000 0.200000 0.600000 0.600000 0.200000 0.200000 
" ||| "Israel objects ||| 0.200000 0.200000 0.600000 0.200000 0.200000 0.600000 
" ||| "Israel ||| 0.200000 0.200000 0.600000 0.200000 0.200000 0.600000 
" ||| "Israeli ||| 0.333333 0.111111 0.555556 0.555556 0.111111 0.333333 
" ||| "It is a ||| 0.200000 0.200000 0.600000 0.200000 0.200000 0.600000 
" ||| "It is also necessary ||| 0.200000 0.200000 0.600000 0.200000 0.200000 0.600000 
" ||| "It is also ||| 0.200000 0.200000 0.600000 0.200000 0.200000 0.600000 
" ||| "It is ||| 0.454545 0.090909 0.454545 0.272727 0.090909 0.636364 
" ||| "It would have ||| 0.600000 0.200000 0.200000 0.600000 0.200000 0.200000 
" ||| "It would ||| 0.600000 0.200000 0.200000 0.200000 0.200000 0.600000 
" ||| "It ||| 0.675676 0.027027 0.297297 0.297297 0.081081 0.621622 
" ||| "Jano". ||| 0.200000 0.200000 0.600000 0.200000 0.200000 0.600000 
" ||| "Jerusalem ||| 0.200000 0.200000 0.600000 0.200000 0.200000 0.600000 
" ||| "Labor" Party ||| 0.200000 0.200000 0.600000 0.200000 0.200000 0.600000 
" ||| "Labor" ||| 0.200000 0.200000 0.600000 0.200000 0.200000 0.600000 
" ||| "Lebanese Forces" ||| 0.200000 0.600000 0.200000 0.200000 0.200000 0.600000 
" ||| "Lebanese Industry: ||| 0.200000 0.200000 0.600000 0.200000 0.200000 0.600000 
" ||| "Lebanese arena" remains the ||| 0.200000 0.600000 0.200000 0.200000 0.200000 0.600000 
" ||| "Lebanese arena" remains ||| 0.200000 0.600000 0.200000 0.200000 0.200000 0.600000 
" ||| "Lebanese arena" ||| 0.200000 0.600000 0.200000 0.200000 0.200000 0.600000 
" ||| "Lebanese ||| 0.111111 0.555556 0.333333 0.111111 0.111111 0.777778 
" ||| "Lebanon, like ||| 0.600000 0.200000 0.200000 0.200000 0.200000 0.600000 
" ||| "Lebanon, ||| 0.600000 0.200000 0.200000 0.200000 0.200000 0.600000 
" ||| "Members ||| 0.600000 0.200000 0.200000 0.200000 0.200000 0.600000 
" ||| "Miraflores" ||| 0.200000 0.200000 0.600000 0.200000 0.200000 0.600000 
" ||| "My ||| 0.600000 0.200000 0.200000 0.600000 0.200000 0.200000 
" ||| "New ||| 0.600000 0.200000 0.200000 0.600000 0.200000 0.200000 
" ||| "No ||| 0.428571 0.142857 0.428571 0.142857 0.428571 0.428571 
" ||| "Of ||| 0.600000 0.200000 0.200000 0.600000 0.200000 0.200000 
" ||| "Our people can ||| 0.600000 0.200000 0.200000 0.200000 0.200000 0.600000 
" ||| "Our people ||| 0.600000 0.200000 0.200000 0.200000 0.200000 0.600000 
" ||| "Our ||| 0.714286 0.142857 0.142857 0.142857 0.142857 0.714286 
" ||| "Poisonous ||| 0.600000 0.200000 0.200000 0.600000 0.200000 0.200000 
" ||| "Prepare for the ||| 0.600000 0.200000 0.200000 0.200000 0.200000 0.600000 
" ||| "Prepare for ||| 0.600000 0.200000 0.200000 0.200000 0.200000 0.600000 
" ||| "Prepare ||| 0.600000 0.200000 0.200000 0.200000 0.200000 0.600000 
" ||| "President ||| 0.333333 0.333333 0.333333 0.333333 0.111111 0.555556 
" ||| "Read ||| 0.200000 0.200000 0.600000 0.600000 0.200000 0.200000 
" ||| "Social Center for the ||| 0.200000 0.200000 0.600000 0.200000 0.600000 0.200000 
" ||| "Social Center for ||| 0.200000 0.200000 0.600000 0.200000 0.200000 0.600000 
" ||| "Social Center ||| 0.200000 0.200000 0.600000 0.200000 0.200000 0.600000 
" ||| "Social ||| 0.200000 0.200000 0.600000 0.200000 0.200000 0.600000 
" ||| "Srpska" reported ||| 0.200000 0.600000 0.200000 0.200000 0.200000 0.600000 
" ||| "Srpska" ||| 0.200000 0.600000 0.200000 0.200000 0.200000 0.600000 
" ||| "Taliban" Movement, supported ||| 0.200000 0.200000 0.600000 0.200000 0.600000 0.200000 
" ||| "Taliban" Movement, ||| 0.200000 0.200000 0.600000 0.200000 0.200000 0.600000 
" ||| "Taliban" and Al ||| 0.200000 0.200000 0.600000 0.200000 0.200000 0.600000 
" ||| "Taliban" and ||| 0.200000 0.200000 0.600000 0.200000 0.200000 0.600000 
" ||| "Taliban" movement, ||| 0.200000 0.200000 0.600000 0.200000 0.200000 0.600000 
" ||| "Taliban" ||| 0.111111 0.111111 0.777778 0.111111 0.111111 0.777778 
" ||| "Taliban", as well as supporters of the ||| 0.200000 0.200000 0.600000 0.200000 0.200000 0.600000 
" ||| "Taliban", as well as supporters of ||| 0.200000 0.200000 0.600000 0.200000 0.200000 0.600000 
" ||| "Taliban", as well as supporters ||| 0.200000 0.200000 0.600000 0.200000 0.200000 0.600000 
" ||| "Taliban", as well as ||| 0.200000 0.200000 0.600000 0.200000 0.200000 0.600000 
" ||| "Taliban", as well ||| 0.200000 0.200000 0.600000 0.200000 0.200000 0.600000 
" ||| "Taliban", as ||| 0.200000 0.200000 0.600000 0.200000 0.200000 0.600000 
" ||| "Taliban." ||| 0.200000 0.200000 0.600000 0.200000 0.200000 0.600000 
" ||| "The Diplomatic ||| 0.600000 0.200000 0.200000 0.200000 0.200000 0.600000 
" ||| "The Iraqi ||| 0.600000 0.200000 0.200000 0.600000 0.200000 0.200000 
" ||| "The Local Arts, Literature and ||| 0.200000 0.200000 0.600000 0.200000 0.200000 0.600000 
" ||| "The Local Arts, Literature ||| 0.200000 0.200000 0.600000 0.200000 0.200000 0.600000 
" ||| "The Local Arts, ||| 0.200000 0.200000 0.600000 0.200000 0.200000 0.600000 
" ||| "The Local ||| 0.200000 0.200000 0.600000 0.200000 0.200000 0.600000 
" ||| "The Memoirs of ||| 0.600000 0.200000 0.200000 0.600000 0.200000 0.200000 
" ||| "The Memoirs ||| 0.600000 0.200000 0.200000 0.200000 0.200000 0.600000 
" ||| "The conditions of ||| 0.200000 0.200000 0.600000 0.200000 0.200000 0.600000 
" ||| "The conditions ||| 0.200000 0.200000 0.600000 0.200000 0.200000 0.600000 
" ||| "The health sector ||| 0.600000 0.200000 0.200000 0.200000 0.200000 0.600000 
" ||| "The health ||| 0.600000 0.200000 0.200000 0.200000 0.200000 0.600000 
" ||| "The life ||| 0.200000 0.200000 0.600000 0.600000 0.200000 0.200000 
" ||| "The living affairs ||| 0.200000 0.200000 0.600000 0.200000 0.600000 0.200000 
" ||| "The living ||| 0.200000 0.200000 0.600000 0.200000 0.200000 0.600000 
" ||| "The orders were ||| 0.200000 0.200000 0.600000 0.200000 0.200000 0.600000 
" ||| "The orders ||| 0.200000 0.200000 0.600000 0.200000 0.200000 0.600000 
" ||| "The person ||| 0.200000 0.200000 0.600000 0.200000 0.200000 0.600000 
" ||| "The philosophy ||| 0.200000 0.200000 0.600000 0.600000 0.200000 0.200000 
" ||| "The problem ||| 0.600000 0.200000 0.200000 0.200000 0.200000 0.600000 
" ||| "The renewed movement of the group ||| 0.600000 0.200000 0.200000 0.600000 0.200000 0.200000 
" ||| "The renewed movement of the ||| 0.600000 0.200000 0.200000 0.200000 0.200000 0.600000 
" ||| "The renewed movement of ||| 0.600000 0.200000 0.200000 0.200000 0.200000 0.600000 
" ||| "The renewed movement ||| 0.600000 0.200000 0.200000 0.200000 0.200000 0.600000 
" ||| "The renewed ||| 0.600000 0.200000 0.200000 0.200000 0.200000 0.600000 
" ||| "The sovereign ||| 0.600000 0.200000 0.200000 0.200000 0.200000 0.600000 
" ||| "The ||| 0.570093 0.028037 0.401869 0.327103 0.065421 0.607477 
" ||| "There are two reasons ||| 0.142857 0.142857 0.714286 0.142857 0.142857 0.714286 
" ||| "There are two ||| 0.142857 0.142857 0.714286 0.142857 0.142857 0.714286 
" ||| "There are ||| 0.272727 0.090909 0.636364 0.454545 0.090909 0.454545 
" ||| "There is always ||| 0.200000 0.200000 0.600000 0.200000 0.200000 0.600000 
" ||| "There is ||| 0.428571 0.142857 0.428571 0.428571 0.142857 0.428571 
" ||| "There we have ||| 0.200000 0.200000 0.600000 0.200000 0.200000 0.600000 
" ||| "There we ||| 0.200000 0.200000 0.600000 0.200000 0.200000 0.600000 
" ||| "There were ||| 0.200000 0.200000 0.600000 0.200000 0.200000 0.600000 
" ||| "There ||| 0.483871 0.032258 0.483871 0.225806 0.032258 0.741935 
" ||| "These ||| 0.200000 0.200000 0.600000 0.200000 0.200000 0.600000 
" ||| "They are being treated and that ||| 0.600000 0.200000 0.200000 0.200000 0.200000 0.600000 
" ||| "They are being treated and ||| 0.600000 0.200000 0.200000 0.200000 0.200000 0.600000 
" ||| "They are being treated ||| 0.600000 0.200000 0.200000 0.200000 0.200000 0.600000 
" ||| "They are being ||| 0.600000 0.200000 0.200000 0.200000 0.200000 0.600000 
" ||| "They are ||| 0.600000 0.200000 0.200000 0.200000 0.200000 0.600000 
" ||| "They ||| 0.714286 0.142857 0.142857 0.142857 0.142857 0.714286 
" ||| "Thirteen ||| 0.600000 0.200000 0.200000 0.600000 0.200000 0.200000 
" ||| "This is extremely important ||| 0.200000 0.200000 0.600000 0.200000 0.200000 0.600000 
" ||| "This is extremely ||| 0.200000 0.200000 0.600000 0.200000 0.200000 0.600000 
" ||| "This is ||| 0.200000 0.200000 0.600000 0.200000 0.200000 0.600000 
" ||| "This man ||| 0.600000 0.200000 0.200000 0.200000 0.200000 0.600000 
" ||| "This man, who ||| 0.200000 0.200000 0.600000 0.200000 0.200000 0.600000 
" ||| "This man, ||| 0.200000 0.200000 0.600000 0.200000 0.200000 0.600000 
" ||| "This step means a break from ||| 0.600000 0.200000 0.200000 0.200000 0.200000 0.600000 
" ||| "This step means a break ||| 0.600000 0.200000 0.200000 0.200000 0.200000 0.600000 
" ||| "This step means a ||| 0.600000 0.200000 0.200000 0.200000 0.200000 0.600000 
" ||| "This step means ||| 0.600000 0.200000 0.200000 0.200000 0.200000 0.600000 
" ||| "This step ||| 0.600000 0.200000 0.200000 0.200000 0.200000 0.600000 
" ||| "This ||| 0.454545 0.090909 0.454545 0.090909 0.090909 0.818182 
" ||| "Union for ||| 0.200000 0.200000 0.600000 0.200000 0.200000 0.600000 
" ||| "Union ||| 0.200000 0.200000 0.600000 0.200000 0.200000 0.600000 
" ||| "Until the ||| 0.200000 0.200000 0.600000 0.600000 0.200000 0.200000 
" ||| "Until ||| 0.200000 0.200000 0.600000 0.200000 0.200000 0.600000 
" ||| "We are moved by our feelings of ||| 0.200000 0.200000 0.600000 0.200000 0.200000 0.600000 
" ||| "We are moved by our feelings ||| 0.200000 0.200000 0.600000 0.200000 0.200000 0.600000 
" ||| "We are moved by our ||| 0.200000 0.200000 0.600000 0.200000 0.200000 0.600000 
" ||| "We are moved by ||| 0.200000 0.200000 0.600000 0.200000 0.200000 0.600000 
" ||| "We are moved ||| 0.200000 0.200000 0.600000 0.200000 0.200000 0.600000 
" ||| "We are ||| 0.142857 0.142857 0.714286 0.142857 0.142857 0.714286 
" ||| "We ask our ||| 0.200000 0.200000 0.600000 0.200000 0.200000 0.600000 
" ||| "We ask ||| 0.200000 0.200000 0.600000 0.200000 0.200000 0.600000 
" ||| "We call upon all peoples to ||| 0.200000 0.200000 0.600000 0.200000 0.200000 0.600000 
" ||| "We call upon all peoples ||| 0.200000 0.200000 0.600000 0.200000 0.200000 0.600000 
" ||| "We call upon all ||| 0.200000 0.200000 0.600000 0.200000 0.200000 0.600000 
" ||| "We call upon ||| 0.200000 0.200000 0.600000 0.200000 0.200000 0.600000 
" ||| "We call ||| 0.200000 0.200000 0.600000 0.200000 0.200000 0.600000 
" ||| "We deeply regret this ||| 0.200000 0.200000 0.600000 0.200000 0.600000 0.200000 
" ||| "We deeply regret ||| 0.200000 0.200000 0.600000 0.200000 0.200000 0.600000 
" ||| "We deeply ||| 0.200000 0.200000 0.600000 0.200000 0.200000 0.600000 
" ||| "We have ||| 0.200000 0.200000 0.600000 0.600000 0.200000 0.200000 
" ||| "We started ||| 0.200000 0.200000 0.600000 0.200000 0.200000 0.600000 
" ||| "We wanted ||| 0.600000 0.200000 0.200000 0.200000 0.200000 0.600000 
" ||| "We will contact the ||| 0.200000 0.600000 0.200000 0.200000 0.200000 0.600000 
" ||| "We will contact ||| 0.200000 0.600000 0.200000 0.200000 0.200000 0.600000 
" ||| "We will ||| 0.200000 0.600000 0.200000 0.200000 0.200000 0.600000 
" ||| "We ||| 0.590361 0.084337 0.325301 0.518072 0.012048 0.469880 
" ||| "What can ||| 0.200000 0.200000 0.600000 0.200000 0.200000 0.600000 
" ||| "What does ||| 0.600000 0.200000 0.200000 0.200000 0.200000 0.600000 
" ||| "What ||| 0.428571 0.142857 0.428571 0.142857 0.142857 0.714286 
" ||| "With ||| 0.142857 0.142857 0.714286 0.142857 0.142857 0.714286 
" ||| "World ||| 0.200000 0.600000 0.200000 0.200000 0.600000 0.200000 
" ||| "Zarya" (Dawn in Russian) was launched ||| 0.200000 0.200000 0.600000 0.200000 0.200000 0.600000 
" ||| "Zarya" (Dawn in Russian) was ||| 0.200000 0.200000 0.600000 0.200000 0.200000 0.600000 
" ||| "Zarya" (Dawn in Russian) ||| 0.200000 0.200000 0.600000 0.200000 0.200000 0.600000 
" ||| "Zarya" (Dawn in ||| 0.200000 0.200000 0.600000 0.200000 0.200000 0.600000 
" ||| "Zarya" (Dawn ||| 0.200000 0.200000 0.600000 0.200000 0.200000 0.600000 
" ||| "Zarya" ||| 0.200000 0.200000 0.600000 0.200000 0.200000 0.600000 
" ||| "a correct ||| 0.600000 0.200000 0.200000 0.200000 0.200000 0.600000 
" ||| "a further ||| 0.200000 0.600000 0.200000 0.200000 0.200000 0.600000 
" ||| "a group ||| 0.600000 0.200000 0.200000 0.200000 0.200000 0.600000 
" ||| "a real, fundamental and ||| 0.200000 0.200000 0.600000 0.200000 0.600000 0.200000 
" ||| "a real, fundamental ||| 0.200000 0.200000 0.600000 0.200000 0.200000 0.600000 
" ||| "a real, ||| 0.200000 0.200000 0.600000 0.200000 0.200000 0.600000 
" ||| "a sacred right" and has ||| 0.600000 0.200000 0.200000 0.600000 0.200000 0.200000 
" ||| "a sacred right" and ||| 0.600000 0.200000 0.200000 0.200000 0.200000 0.600000 
" ||| "a sacred right" ||| 0.600000 0.200000 0.200000 0.200000 0.200000 0.600000 
" ||| "a sacred ||| 0.600000 0.200000 0.200000 0.200000 0.200000 0.600000 
" ||| "a second article of ||| 0.600000 0.200000 0.200000 0.600000 0.200000 0.200000 
" ||| "a second article ||| 0.600000 0.200000 0.200000 0.200000 0.200000 0.600000 
" ||| "a second ||| 0.600000 0.200000 0.200000 0.200000 0.200000 0.600000 
" ||| "a strengthening ||| 0.600000 0.200000 0.200000 0.600000 0.200000 0.200000 
" ||| "a ||| 0.574468 0.063830 0.361702 0.276596 0.106383 0.617021 
" ||| "agitators" had been arrested and ||| 0.200000 0.200000 0.600000 0.200000 0.600000 0.200000 
" ||| "agitators" had been arrested ||| 0.200000 0.200000 0.600000 0.200000 0.200000 0.600000 
" ||| "agitators" had been ||| 0.200000 0.200000 0.600000 0.200000 0.200000 0.600000 
" ||| "agitators" had ||| 0.200000 0.200000 0.600000 0.200000 0.200000 0.600000 
" ||| "agitators" ||| 0.200000 0.200000 0.600000 0.200000 0.200000 0.600000 
" ||| "agreed upon" ||| 0.200000 0.200000 0.600000 0.200000 0.200000 0.600000 
" ||| "agreed ||| 0.200000 0.200000 0.600000 0.200000 0.200000 0.600000 
" ||| "all contact ||| 0.200000 0.200000 0.600000 0.200000 0.200000 0.600000 
" ||| "all the ||| 0.200000 0.200000 0.600000 0.200000 0.200000 0.600000 
" ||| "all ||| 0.333333 0.111111 0.555556 0.111111 0.111111 0.777778 
" ||| "an agreement should be concluded ||| 0.600000 0.200000 0.200000 0.200000 0.200000 0.600000 
" ||| "an agreement should be ||| 0.600000 0.200000 0.200000 0.200000 0.200000 0.600000 
" ||| "an agreement should ||| 0.600000 0.200000 0.200000 0.200000 0.200000 0.600000 
" ||| "an agreement ||| 0.600000 0.200000 0.200000 0.200000 0.200000 0.600000 
" ||| "an appropriate action" ||| 0.200000 0.200000 0.600000 0.200000 0.200000 0.600000 
" ||| "an appropriate ||| 0.200000 0.200000 0.600000 0.200000 0.200000 0.600000 
" ||| "an ||| 0.692308 0.076923 0.230769 0.384615 0.076923 0.538462 
" ||| "and I have nothing to ||| 0.600000 0.200000 0.200000 0.600000 0.200000 0.200000 
" ||| "and I have nothing ||| 0.600000 0.200000 0.200000 0.200000 0.200000 0.600000 
" ||| "and I have ||| 0.600000 0.200000 0.200000 0.200000 0.200000 0.600000 
" ||| "and I ||| 0.600000 0.200000 0.200000 0.200000 0.200000 0.600000 
" ||| "and ||| 0.714286 0.142857 0.142857 0.428571 0.142857 0.428571 
" ||| "are proud to be Muslims, and that ||| 0.200000 0.200000 0.600000 0.200000 0.200000 0.600000 
" ||| "are proud to be Muslims, and ||| 0.200000 0.200000 0.600000 0.200000 0.200000 0.600000 
" ||| "are proud to be Muslims, ||| 0.200000 0.200000 0.600000 0.200000 0.200000 0.600000 
" ||| "are proud to be ||| 0.200000 0.200000 0.600000 0.200000 0.200000 0.600000 
" ||| "are proud to ||| 0.200000 0.200000 0.600000 0.200000 0.200000 0.600000 
" ||| "are proud ||| 0.200000 0.200000 0.600000 0.200000 0.200000 0.600000 
" ||| "are ||| 0.428571 0.142857 0.428571 0.428571 0.142857 0.428571 
" ||| "as ||| 0.111111 0.111111 0.777778 0.111111 0.333333 0.555556 
" ||| "at a ||| 0.200000 0.200000 0.600000 0.200000 0.200000 0.600000 
" ||| "at ||| 0.111111 0.111111 0.777778 0.111111 0.333333 0.555556 
" ||| "because its major ||| 0.200000 0.200000 0.600000 0.200000 0.200000 0.600000 
" ||| "because its ||| 0.200000 0.200000 0.600000 0.200000 0.200000 0.600000 
" ||| "because they did not handle ||| 0.600000 0.200000 0.200000 0.200000 0.200000 0.600000 
" ||| "because they did not ||| 0.600000 0.200000 0.200000 0.200000 0.200000 0.600000 
" ||| "because they did ||| 0.600000 0.200000 0.200000 0.200000 0.200000 0.600000 
" ||| "because they ||| 0.600000 0.200000 0.200000 0.200000 0.200000 0.600000 
" ||| "because ||| 0.230769 0.076923 0.692308 0.230769 0.076923 0.692308 
" ||| "can ||| 0.600000 0.200000 0.200000 0.600000 0.200000 0.200000 
" ||| "concentrate their ||| 0.200000 0.200000 0.600000 0.200000 0.200000 0.600000 
" ||| "concentrate ||| 0.200000 0.200000 0.600000 0.200000 0.200000 0.600000 
" ||| "confirmation of the desire to engage ||| 0.200000 0.200000 0.600000 0.200000 0.200000 0.600000 
" ||| "confirmation of the desire to ||| 0.200000 0.200000 0.600000 0.200000 0.200000 0.600000 
" ||| "confirmation of the desire ||| 0.200000 0.200000 0.600000 0.200000 0.200000 0.600000 
" ||| "confirmation of the ||| 0.142857 0.142857 0.714286 0.428571 0.142857 0.428571 
" ||| "confirmation of ||| 0.142857 0.142857 0.714286 0.142857 0.142857 0.714286 
" ||| "confirmation ||| 0.142857 0.142857 0.714286 0.142857 0.142857 0.714286 
" ||| "continue ||| 0.200000 0.200000 0.600000 0.200000 0.200000 0.600000 
" ||| "contributes to ||| 0.200000 0.200000 0.600000 0.200000 0.200000 0.600000 
" ||| "contributes ||| 0.200000 0.200000 0.600000 0.200000 0.200000 0.600000 
" ||| "enemies ||| 0.142857 0.142857 0.714286 0.428571 0.142857 0.428571 
" ||| "even given up ||| 0.200000 0.200000 0.600000 0.200000 0.200000 0.600000 
" ||| "even given ||| 0.200000 0.200000 0.600000 0.200000 0.200000 0.600000 
" ||| "even though ||| 0.200000 0.200000 0.600000 0.200000 0.200000 0.600000 
" ||| "even ||| 0.272727 0.090909 0.636364 0.272727 0.090909 0.636364 
" ||| "everything is calm on the ||| 0.200000 0.200000 0.600000 0.200000 0.200000 0.600000 
" ||| "everything is calm on ||| 0.200000 0.200000 0.600000 0.200000 0.200000 0.600000 
" ||| "everything is calm ||| 0.200000 0.200000 0.600000 0.200000 0.200000 0.600000 
" ||| "everything is ||| 0.200000 0.200000 0.600000 0.200000 0.200000 0.600000 
" ||| "everything ||| 0.200000 0.200000 0.600000 0.200000 0.200000 0.600000 
" ||| "face up ||| 0.200000 0.600000 0.200000 0.200000 0.200000 0.600000 
" ||| "face ||| 0.200000 0.600000 0.200000 0.200000 0.200000 0.600000 
" ||| "for the world, ||| 0.200000 0.200000 0.600000 0.600000 0.200000 0.200000 
" ||| "for the ||| 0.200000 0.200000 0.600000 0.200000 0.200000 0.600000 
" ||| "for ||| 0.384615 0.076923 0.538462 0.384615 0.076923 0.538462 
" ||| "from the ||| 0.111111 0.111111 0.777778 0.111111 0.333333 0.555556 
" ||| "from ||| 0.200000 0.200000 0.600000 0.200000 0.200000 0.600000 
" ||| "general ||| 0.200000 0.200000 0.600000 0.200000 0.200000 0.600000 
" ||| "genocide", "terrorism" ||| 0.200000 0.200000 0.600000 0.200000 0.200000 0.600000 
